#pragma once

#include <cstdint>

static constexpr bool DQN_WEIGHTS_READY = true;
static constexpr uint16_t DQN_INPUT_SIZE = 11;
static constexpr uint16_t DQN_HIDDEN_SIZE = 128;
static constexpr uint16_t DQN_OUTPUT_SIZE = 3;

static constexpr float DQN_FC1_WEIGHTS[DQN_HIDDEN_SIZE][DQN_INPUT_SIZE] =
{
    { 0.424542904f, -0.881696701f, -0.326572657f, -0.626335263f, 0.285086423f, 0.0862411782f, -0.890279472f, -0.119458064f, -0.841799974f, -0.385352612f, 0.434240967f },
    { -0.0224803574f, -0.286876678f, 0.00912696216f, -0.0971772447f, -0.0452353917f, -0.377615213f, 0.218039945f, 0.0395429395f, 0.267580241f, 0.346906453f, -0.281445295f },
    { -0.194895521f, 0.504481733f, 0.210659489f, -0.00836908072f, 0.0237140823f, -0.0616983399f, 0.116120592f, -0.203095227f, -0.177950606f, -0.147625595f, -0.249805331f },
    { -0.130080923f, 0.309833944f, 0.0300884843f, 0.282629371f, -0.129198655f, -0.124339394f, -0.163304448f, -0.0900936499f, 0.0703784749f, -0.160228431f, 0.289459497f },
    { 0.295512319f, 0.115263358f, -0.0998598039f, -0.0363547541f, -0.199751422f, -0.338304013f, -0.145485446f, 0.0592215359f, -0.158572808f, -0.131051168f, -0.121531725f },
    { 0.748960972f, -0.0535249971f, -0.166159689f, -0.00105801469f, -0.305209666f, -0.182649255f, -0.6045416f, 0.0576780625f, -0.139456853f, -0.376395047f, -0.0978602841f },
    { -0.0102000516f, 0.362900525f, 0.145563185f, -0.151222855f, -0.368016303f, -0.696516871f, -0.00935763307f, 0.211461857f, -0.301813394f, 0.274162591f, -0.14866212f },
    { 0.138470098f, 0.233801514f, -0.155385792f, -0.893994808f, -0.898005784f, 0.137445152f, 0.0973182023f, 0.278506249f, 0.276819974f, -0.463742316f, -0.709416687f },
    { 0.357131004f, -0.100986898f, -0.101186886f, 0.21799764f, 0.352658927f, -0.5266397f, -0.202771038f, -0.61186558f, -0.393513829f, 0.031238541f, 0.14732188f },
    { 1.06049931f, 0.175590426f, -0.273507059f, 0.114065289f, -0.115147762f, -0.0185238384f, 0.186291471f, -0.00741505343f, 0.195242465f, 0.0890170261f, 0.0932745337f },
    { -0.285377949f, 0.336206436f, 0.332404822f, -0.598085105f, -0.758888841f, -0.545926929f, -0.310191154f, -0.621656716f, -0.474417865f, -0.46190384f, -0.170977831f },
    { 0.785619438f, -0.015161437f, 0.00178331067f, -0.440922052f, -0.0874882787f, -0.0703630447f, -0.0881573707f, -0.309008867f, 0.0360956118f, 0.354508072f, 0.403835505f },
    { 0.254140466f, -0.0888089389f, -0.310348481f, -0.312389761f, -0.21987769f, 0.0744500905f, 0.0574019961f, 0.0483469293f, 0.0441004038f, -0.0748748481f, -0.480189383f },
    { 0.138476923f, -0.283329368f, -0.290319562f, -0.245705843f, -0.244293615f, -0.0292397812f, -0.0623251088f, 0.0900494084f, -0.128364637f, 0.0654731095f, -0.301238388f },
    { 0.146572337f, 0.378216952f, -0.0405863822f, -0.579369009f, 0.00400042487f, -0.144076705f, -0.57076931f, 0.102839865f, -0.462202787f, -0.584506571f, -0.59937346f },
    { 0.143566057f, 0.130941644f, -0.0590104163f, 0.00576168625f, -0.255812049f, -0.118764579f, -0.0781276822f, -0.311257452f, -0.289388567f, -0.284311384f, -0.192838147f },
    { -0.0886683688f, 0.239952743f, 0.147996753f, -0.411844134f, -0.375221282f, -0.0615513921f, -0.435718507f, 0.142478123f, -0.186080277f, -0.120122969f, 0.12669985f },
    { -0.218422204f, 0.170906588f, -0.348219693f, -0.201642081f, -0.39324528f, -0.10128779f, -0.379723638f, -0.356566608f, -0.101461396f, -0.176543608f, 0.121869318f },
    { -0.111557588f, -0.394652426f, -0.164231122f, 0.333472639f, 0.0531474277f, 0.161306217f, 0.336124182f, -0.191792101f, 0.0391671471f, -0.145542115f, -0.251173973f },
    { 0.118271403f, 0.728095353f, -0.0900650993f, -0.0719173029f, -0.0584795773f, 0.117485851f, 0.198372632f, -0.200591236f, -0.0549534447f, 0.274862081f, 0.253550828f },
    { 0.0521822385f, 0.845983505f, 0.0365129933f, -0.00687807798f, -0.178331986f, 0.16316773f, -0.166009694f, 0.0441744067f, -0.173649192f, 0.0862115175f, 0.203641474f },
    { 0.24798499f, 0.464741766f, -1.1121912f, -0.188045561f, 0.0625564232f, -0.385234207f, 0.182351351f, 0.0248872973f, 0.0140250418f, 0.425728768f, 0.139775187f },
    { -0.131633639f, -0.809633791f, 0.0949533209f, 0.138414487f, 0.144283637f, 0.264834315f, 0.00510976883f, -0.0553902388f, -0.306965232f, -0.400037587f, -0.113380902f },
    { 0.0783065483f, -0.25487408f, 0.168006152f, -0.358397126f, -0.0812601969f, -0.512303948f, 0.271571338f, -0.701884329f, -0.625952661f, 0.360706657f, -0.265476555f },
    { -0.389224827f, -0.457252532f, -0.240598276f, 0.130406573f, 0.29259941f, 0.341825724f, 0.372454643f, -0.00912945531f, -0.313026786f, -0.174987197f, -0.410371721f },
    { -0.502912939f, -0.107507192f, 0.126210868f, -0.349097699f, -0.0269499738f, -0.173814073f, 0.0245744623f, -0.0773444697f, -0.00932964869f, -0.230619371f, -0.07116092f },
    { 0.733856797f, 0.0974506512f, 0.00700551178f, 0.238279298f, -0.203945205f, -0.59918344f, -0.0130297942f, -0.123226799f, 0.0620720014f, -0.306845546f, -0.275128186f },
    { -0.365687788f, 0.0783981383f, -0.488112807f, -0.168825984f, 0.00989852846f, -0.215965137f, -0.0514972396f, 0.241993308f, -0.132681876f, 0.112606704f, 0.161763921f },
    { 0.0984110832f, -0.309640437f, 0.0904368162f, -0.391918808f, 0.432887048f, -0.212753147f, -0.218476072f, 0.0441213287f, -0.61100018f, 0.0426028743f, -0.619322717f },
    { 0.206152216f, -0.147219151f, -0.295411408f, -0.256924123f, -0.233680695f, -0.134161502f, -0.226068139f, -0.10546916f, -0.00523851113f, 0.00655859429f, -0.247700304f },
    { 0.274023861f, 0.39754793f, -0.51061672f, -0.258036107f, -0.246394426f, -0.227611855f, -0.749341488f, -0.153841704f, 0.374556363f, 0.191057697f, 0.225257963f },
    { 0.557811022f, -0.073186487f, 0.29052341f, -0.224099025f, -0.00481335307f, -0.546434999f, -0.0672738776f, -0.103374526f, 0.0389005542f, 0.268722415f, 0.118024595f },
    { 0.432696372f, -0.000633897318f, 0.181262031f, -0.32755509f, 0.320251435f, -0.283148825f, 0.319210798f, 0.0212215874f, -0.340314955f, 0.169652864f, -0.425934732f },
    { 0.343088329f, 0.00964936521f, 0.316194117f, -0.581957638f, -0.216298372f, -0.553246021f, -0.38063556f, -0.567776561f, -0.626764894f, -0.472249359f, -0.131923795f },
    { 0.434139997f, 0.13175647f, 0.184963033f, -0.560148239f, -0.0847035721f, 0.165177822f, 0.160909042f, -0.952769041f, -0.771269023f, 0.12665461f, 0.178172484f },
    { 0.0214703605f, 0.0536044762f, 0.137447104f, -0.33197099f, -0.279866129f, -0.487437338f, -0.305717021f, 0.120836422f, -0.10667821f, 0.130310297f, 0.013584638f },
    { -0.100298509f, 0.127898812f, -0.388710588f, 0.316561401f, 0.30000329f, -0.448776633f, 0.28643477f, -0.27880013f, -0.137425512f, -0.316066861f, -0.217724681f },
    { 0.234545588f, -0.571479976f, 0.282613218f, 0.0258835964f, -0.219566435f, 0.0151016293f, -0.361537367f, -0.357690215f, -0.465017378f, -0.460440189f, -0.0950293913f },
    { 0.533356071f, -0.133495882f, -0.0595879927f, -0.451515377f, -0.447989732f, 0.0807573497f, -0.00995769817f, -0.637131155f, -0.627061784f, -0.11063154f, 0.0025920046f },
    { 0.0809105113f, 0.0891170353f, -0.116117366f, 0.139767036f, 0.0604261011f, -0.330298662f, 0.126916856f, -0.485061496f, -0.168188527f, -0.115003593f, -0.326256931f },
    { 0.130641714f, 0.245399997f, -0.810551584f, 0.095304206f, -0.531311512f, 0.303768724f, -0.261119932f, -0.239680707f, -0.122165635f, -0.511459887f, -0.0833728686f },
    { 0.253388435f, -0.64557606f, 0.41518262f, -0.229894429f, -0.175289154f, -0.321376175f, -0.329468846f, -0.411404371f, 0.141009912f, 0.0315162428f, 0.163886458f },
    { 0.117607869f, 0.0570101514f, 0.266501367f, -0.125657216f, -0.299069911f, 0.031592641f, -0.394950897f, 0.215435997f, 0.504291892f, 0.0823715553f, 0.217480853f },
    { 0.285597533f, -0.222356915f, 0.0111251567f, 0.571026266f, -0.65262872f, -0.848711133f, -0.86239475f, -1.2275933f, -1.12930572f, 0.419581264f, -1.00643778f },
    { 0.253648609f, 0.48704201f, 0.0138564808f, -0.0313409008f, -0.0612981282f, -0.329708248f, -0.0533071756f, 0.280378073f, 0.0389023237f, 0.218313172f, 0.190669701f },
    { -0.255544841f, 0.250341415f, -0.157391697f, 0.14936772f, 0.0353814289f, 0.0486216769f, 0.115554869f, -0.219871536f, -0.0891156718f, -0.0754072368f, -0.263692617f },
    { 0.27395013f, 0.443140358f, 0.0314420387f, 0.055196438f, -0.598012805f, -0.272406518f, -0.605117202f, 0.0264784358f, 0.27032125f, 0.280244976f, -0.220786393f },
    { -0.567980826f, 0.218047723f, 0.248368889f, 0.0785166994f, -0.438856751f, -0.423742801f, 0.0462480709f, -0.132192001f, 0.0380483158f, -0.516079545f, -0.514057636f },
    { -0.615727007f, -0.485344827f, -0.399329156f, -0.144557312f, 0.210959211f, -0.373548716f, -0.0963254943f, -0.0678217784f, -0.378237486f, -0.395068765f, -0.401638538f },
    { 0.70263052f, -0.938211024f, -0.495664001f, -0.888126194f, -0.525774896f, 0.180256426f, -0.875647545f, -0.444477558f, 0.245298013f, -0.39775908f, -0.730656385f },
    { 0.293041259f, 0.162785113f, 0.122007497f, -0.278762043f, 0.0401037037f, -0.089172408f, -0.145261854f, 0.200725719f, 0.0265899468f, -0.107651226f, 0.214458957f },
    { 0.221874967f, 0.0419471115f, -0.15969719f, -0.438355416f, -0.460227013f, -0.172290415f, 0.23910819f, -0.621979952f, -0.603519261f, 0.193540648f, -0.228619292f },
    { 0.136334226f, 0.554493845f, 0.142849475f, -0.225791067f, -0.155495927f, -0.0176034123f, -0.203422278f, -0.000517630659f, -0.0834415779f, 0.111999802f, 0.121841624f },
    { 0.175113544f, 0.524078906f, 0.303112209f, -0.236984581f, 0.0753269643f, -0.122277759f, -0.00433663325f, 0.07186234f, 0.287171513f, 0.173716724f, 0.0696525648f },
    { -0.0229691602f, 0.197465256f, 0.363424182f, -0.287421018f, 0.0509245321f, -0.482622653f, -0.0998453945f, -0.192345202f, -0.373595059f, 0.293109655f, -0.365694165f },
    { -0.132569045f, 0.168946922f, -0.506309271f, 0.17038095f, 0.108855344f, 0.273244947f, -0.564830661f, -0.177718073f, -0.654274285f, 0.0317122638f, -0.189831093f },
    { -0.0760182217f, -0.0154775679f, 0.408399463f, -0.324819922f, 0.135685503f, -0.279494137f, -0.376614094f, -0.503078938f, -0.113011241f, 0.211756498f, -0.360786051f },
    { -0.295392632f, 0.416894913f, -0.107291706f, 0.0316457823f, 0.261191159f, -0.276794523f, -0.414503574f, 0.218055621f, -0.0446786545f, -0.56196183f, -0.52278918f },
    { 0.251966894f, 0.263111234f, 0.326255888f, -0.719272912f, -0.121424019f, -0.652862906f, 0.115601495f, -0.0761781558f, -0.160950392f, -0.674857259f, 0.241308376f },
    { 0.377162784f, -0.0189588908f, -0.0540387966f, -0.370841444f, -0.000493876112f, 0.0991209596f, -0.0834880471f, -0.562050402f, -0.0937945545f, -0.521488369f, 0.175875917f },
    { 0.763355851f, 0.0206259843f, 0.261640608f, 0.109001011f, -0.446028799f, 0.374083847f, 0.100290768f, -0.388487637f, 0.228314385f, -0.652909398f, -0.309361815f },
    { 0.569130957f, 0.207783341f, 0.125642449f, -0.20758982f, 0.0392453223f, 0.192346022f, -0.646656632f, 0.502763867f, 0.11079181f, 0.0889736712f, -0.314691722f },
    { 0.174717203f, 0.163371056f, -0.282802373f, 0.265494019f, 0.31575343f, 0.193087757f, 0.198970169f, -0.13202624f, -0.26487124f, -0.422273666f, -0.372040778f },
    { 0.425996065f, 0.309257537f, 0.159319401f, 0.199413806f, 0.256304681f, -0.187063083f, -0.508787215f, -0.204599053f, -0.420698702f, 0.192589998f, -0.227374047f },
    { 0.191977605f, 0.349373281f, 0.219987154f, 0.197783753f, 0.196786329f, -0.239109248f, -0.267843515f, 0.106998965f, 0.167735577f, -0.356386006f, -0.142242312f },
    { 0.158919454f, -0.0840914994f, 0.282227367f, -0.132765293f, -0.493854821f, 0.250660896f, 0.25145483f, -0.404681146f, -0.30418545f, 0.133653805f, 0.264192075f },
    { -0.542009354f, -0.208250463f, 0.295378983f, -0.0130059374f, -0.00569970766f, 0.128180236f, 0.0760030821f, -0.0519026853f, -0.0198381562f, -0.162635013f, -0.170556277f },
    { 0.206149876f, -0.319597036f, 0.327164888f, -0.583840132f, 0.0537301898f, -0.464140713f, 0.126971617f, 0.395502508f, -0.151866749f, 0.220938817f, -0.492515594f },
    { -0.871502697f, 0.00648267707f, 0.387230307f, 0.204727396f, 0.265509814f, -0.257285714f, -0.598180234f, 0.365810275f, -0.52598244f, -0.489218354f, -0.46809575f },
    { -0.656377971f, 0.418247133f, 0.309606165f, -0.00931606535f, -0.411754876f, -0.139943063f, -0.0482579172f, -0.842577159f, -0.604735672f, -0.208965629f, -0.39301005f },
    { -0.62055999f, 0.0495754704f, 0.373101175f, -0.286293417f, 0.097958371f, -0.0338929072f, -0.404067814f, -0.209183887f, -0.681874037f, -0.45087707f, -0.492987692f },
    { -0.55718106f, -0.0449307747f, 0.3750709f, -0.00585539592f, -0.08810357f, -0.415109962f, 0.0527746528f, -0.326856881f, 0.34880808f, -0.00671501644f, 0.00609164219f },
    { -0.081135273f, 0.0800278187f, 0.107957184f, -0.728938997f, -0.698342562f, -0.625338733f, 0.220240757f, 0.303057909f, -0.548620105f, -0.927684426f, -0.675574601f },
    { 0.037106622f, -0.106459312f, 0.261369824f, 0.267275602f, 0.148847401f, -0.80098325f, -0.817124248f, -0.803982973f, -0.633985221f, -0.453582376f, 0.340334564f },
    { 0.506636381f, -0.178802267f, 0.0364549197f, -0.399533719f, 0.436583668f, -0.582652867f, 0.230079964f, 0.227312624f, -0.608588696f, -0.46863097f, -0.50476104f },
    { -0.276293159f, 0.303918123f, 0.210075036f, -0.146064803f, 0.0255061537f, -0.0278383289f, 0.0450871736f, 0.0432534963f, 0.00333700329f, -0.0777538419f, 0.00140369125f },
    { -0.312140793f, 0.00635608705f, -0.0308539625f, 0.284872979f, -0.192654938f, -0.0236705467f, -0.453161389f, -0.0819306746f, 0.233462587f, 0.0298119187f, -0.666122675f },
    { 0.601768136f, -0.576807439f, -0.566769183f, 0.0198954903f, -0.551860332f, 0.0805219412f, -0.563543022f, 0.319203019f, -0.322759658f, -0.0375835709f, -0.640200555f },
    { 0.227359295f, 0.0319846123f, 0.647284687f, -0.0924175158f, -0.0288925469f, -0.0151652284f, -0.0385574773f, 0.00284118392f, -0.00251586386f, -0.00491157267f, 0.0312386565f },
    { 0.596507192f, 0.0279356558f, -0.133121237f, -0.210456342f, -0.328082174f, 0.0873358622f, -0.32774955f, 0.364133447f, 0.214545593f, 0.0777898133f, 0.296720296f },
    { 0.0578619055f, -0.406565458f, -0.0202142652f, 0.026753623f, 0.0981711298f, 0.153739601f, 0.061331179f, -0.0442820378f, -0.262132347f, -0.119675726f, -0.249390274f },
    { -0.00698033161f, -0.0284597334f, 0.00610440876f, 0.237766474f, 0.26879397f, 0.245535851f, 0.244150892f, -0.351233065f, -0.389518589f, -0.358945161f, -0.356627613f },
    { -0.336421221f, 0.135905892f, -0.230377018f, -0.378306806f, -0.378086507f, -0.314821869f, -0.282157749f, 0.0844473094f, -0.0670470595f, 0.00256156363f, 0.00177293236f },
    { 0.252804101f, -0.231698334f, 0.773266435f, -0.131189972f, -0.222198516f, -0.225114211f, -0.107680701f, 0.0481236055f, -0.0945707262f, 0.201730281f, 0.0894169211f },
    { 0.480892926f, -0.533290207f, -0.11226321f, -0.564345896f, 0.0432316028f, -0.224738091f, -0.59529084f, -0.475995541f, 0.257601738f, 0.256760508f, -0.416996449f },
    { -0.548090339f, 0.28287974f, 0.0394865461f, 0.105027884f, -0.578960657f, 0.365452707f, -0.283480406f, 0.321521372f, -0.329623997f, 0.0319907404f, 0.370678753f },
    { -0.220684499f, 0.613293946f, -0.226012588f, -0.0502072833f, -0.0638540164f, 0.00745703746f, 0.00703160372f, 0.0160534773f, -0.169926539f, 0.0321720354f, 0.0323854759f },
    { 0.303335875f, 0.151560664f, 0.160828888f, 0.0716055334f, 0.0709456205f, -0.306501538f, -0.498719543f, 0.0540693402f, 0.0136703858f, -0.41809231f, -0.426495135f },
    { -0.799243629f, -0.132401049f, 0.462171346f, -0.0110698566f, 0.065824233f, 0.0890238583f, 0.0903479457f, -0.143703237f, -0.231213719f, -0.23374629f, -0.307798922f },
    { -0.122156136f, -0.0226679966f, -0.610946596f, 0.296584904f, 0.116563916f, 0.0854805782f, 0.20221597f, -0.273835003f, -0.0362705179f, -0.179413617f, -0.177523091f },
    { -0.126371294f, 0.330901414f, 0.236209124f, -0.531562507f, -0.375377446f, 0.348463774f, -0.774302781f, -0.942261338f, -0.0862894878f, -1.20872271f, -0.858023226f },
    { 0.0746953785f, 0.393006235f, 0.375162393f, -0.426018f, 0.110933036f, -0.248561412f, -0.362952292f, -0.318545103f, -0.271312535f, -0.400852352f, -0.187985256f },
    { 0.289720178f, -0.474683106f, 0.341829121f, -0.304127961f, -0.171425074f, 0.0905159786f, -0.471123934f, -0.0881918371f, -0.203231782f, -0.406164706f, 0.0452912673f },
    { 0.370249391f, 0.433651537f, 0.243559718f, -0.73923409f, -0.0515585393f, 0.18622382f, -0.375985771f, -0.857705057f, -0.178395286f, -0.343338013f, -0.0500338636f },
    { 0.00672546308f, 0.0246366262f, 0.52791518f, 0.185068592f, -0.000436763687f, 0.0797092989f, 0.00307367672f, -0.133285195f, 0.0728516206f, 0.0420581177f, -0.23653838f },
    { 0.165374488f, 0.53626281f, -0.0588166639f, 0.0121457521f, -0.119968191f, -0.191802517f, 0.0846536607f, -0.107691772f, 0.118486322f, -0.048267331f, -0.017316794f },
    { 0.280998617f, -0.206176519f, 0.361149311f, 0.252050817f, 0.226147175f, -0.227267012f, -0.097359933f, 0.241590321f, 0.0631364286f, -0.474924505f, -0.441037089f },
    { -0.237602204f, 0.255001754f, -0.118184805f, -0.37922284f, -0.405325025f, -0.380616754f, 0.0553598218f, 0.112832807f, -0.318890214f, 0.138148054f, -0.255852401f },
    { 0.536275387f, 0.380761564f, 0.165396318f, 0.00809601787f, -0.118241675f, -0.199275672f, -0.175747305f, 0.225205213f, 0.0801891237f, 0.127795398f, 0.242984042f },
    { 0.362320423f, 0.107834198f, 0.244007856f, -0.953555942f, -1.27939534f, -0.373669624f, -0.0451339595f, -0.71848619f, -0.618649542f, -0.491808563f, 0.337948173f },
    { -0.192232415f, 0.135898545f, -0.0706266314f, -0.615856767f, 0.17102161f, 0.390566647f, -0.177676246f, -0.550439417f, -0.193859935f, -0.254912376f, 0.204408973f },
    { 0.13191022f, 0.204465017f, 0.0788147375f, 0.00350143504f, 0.16183117f, -0.146408096f, -0.270463973f, 0.186342672f, -0.0461178347f, 0.362895548f, 0.403659433f },
    { -0.252407789f, 0.275413275f, 0.304609597f, 0.135252833f, 0.128602237f, 0.13675943f, 0.139623374f, -0.201739877f, -0.214779571f, -0.30284369f, -0.301395655f },
    { 0.162655249f, 0.0142335379f, 0.153275862f, -0.290832281f, 0.41814813f, 0.290581703f, -0.488251567f, -1.16883838f, -0.320572287f, -0.0815512165f, -0.535879433f },
    { -0.15643169f, 0.170068204f, -0.13448298f, -0.0631192774f, -0.325756282f, -0.130123779f, -0.236394435f, 0.0878674164f, -0.0451325215f, -0.224332243f, 0.0598903373f },
    { 0.486578584f, -0.337957561f, -0.370395333f, -0.376855195f, -0.149640486f, -0.10436862f, -0.0962743089f, 0.00470424723f, 0.0557839461f, 0.163043365f, 0.0607384816f },
    { 0.61680907f, 0.275746971f, -0.0603366978f, -0.506325603f, 0.0746865347f, 0.252906233f, -0.315519333f, 0.103135265f, -0.587882042f, -0.714210868f, -0.149056703f },
    { -0.0997764468f, 0.132145703f, -0.911925852f, -0.564766467f, 0.342367291f, -0.583821833f, 0.217195451f, -0.916303813f, -0.706625998f, 0.421252698f, -0.504688859f },
    { 0.50001359f, -0.781516135f, 0.187625155f, -0.0978759304f, -0.487615049f, -0.243022576f, 0.101471454f, -0.094569236f, 0.154224947f, 0.0386798494f, -0.0254136808f },
    { 0.380427897f, -0.616736174f, -0.475527823f, -0.429790944f, -0.0336612947f, -0.0501057357f, -0.347925663f, 0.185015202f, 0.144739851f, 0.291044772f, 0.170000315f },
    { 0.443307549f, -0.33568421f, -0.464092672f, -0.126515031f, -0.170831382f, 0.0803669617f, -0.40702033f, -0.0944919735f, 0.244959965f, 0.268453181f, 0.191915572f },
    { 0.060770601f, -0.017544277f, -0.137852818f, 0.208306253f, -0.554733694f, 0.0864117369f, 0.224453509f, 0.00226825825f, -0.0415802971f, -0.665842354f, -0.489376456f },
    { -0.880081296f, 0.187049285f, 0.0337285995f, -0.440616786f, 0.0323818326f, 0.722485244f, -0.439683735f, -1.16048884f, -1.11068547f, -0.800443947f, 0.30169037f },
    { 0.796051145f, -0.113852754f, 0.00634296332f, 0.046032384f, -0.699455619f, -0.150663823f, 0.213423654f, 0.246214688f, -0.264083266f, 0.41737476f, 0.10616982f },
    { 0.487957388f, -0.611555755f, 0.464241803f, -0.305418611f, -0.407678246f, -0.292726427f, -0.893217921f, -0.0369743481f, 0.0379779525f, 0.037649449f, -0.0885609686f },
    { 0.297570705f, 0.161555633f, 0.322199136f, -0.49884972f, 0.0280133765f, -0.0107749496f, -0.185482398f, 0.133631423f, 0.0493207872f, -0.126346171f, 0.218103036f },
    { 0.160425276f, -0.154664353f, 0.229328379f, -0.196987003f, 0.0582112856f, -0.187519327f, -0.084810853f, -0.191902608f, -0.389696509f, -0.150009215f, -0.123874888f },
    { 0.177736953f, 0.0877199918f, -0.741601765f, -0.0858262777f, -0.102274835f, -0.283470124f, 0.0186248031f, -0.418317765f, -0.151400268f, -0.297950387f, -0.110672235f },
    { 0.227609292f, 0.145332545f, 0.2719042f, -0.724881351f, -0.302259445f, 0.0108242994f, -0.547811031f, 0.276456445f, -0.342208564f, -0.704433978f, -0.164935902f },
    { 0.211601019f, 0.411230028f, 0.00837957859f, -0.228560463f, -0.192875668f, -0.0378905237f, 0.166871771f, 0.0254865717f, -0.00656787725f, -0.152586952f, -0.236247018f },
    { 0.210729003f, -0.245086163f, 0.298130274f, -0.269399196f, -0.157024249f, 0.0665869862f, -0.293357253f, 0.298425078f, 0.162166819f, 0.104668602f, 0.345950931f },
    { -0.141099498f, -0.1904535f, -0.0256682746f, 0.199599609f, 0.0710576773f, -0.422248155f, 0.0762875006f, -0.324430943f, -0.305858463f, -0.365782052f, -0.128623068f },
    { 0.417291403f, -0.580870032f, -0.119167514f, -0.0257318709f, -0.228948653f, -0.491964251f, -0.251915276f, 0.202698544f, 0.00298249372f, 0.0366022587f, 0.0430442728f },
    { 0.216744035f, -0.0859969035f, -0.969282389f, 0.110270105f, -0.351266295f, 0.453870207f, -0.527386546f, 0.025624359f, -0.391648233f, -0.388052821f, 0.31350711f },
    { 0.29019168f, 0.0136081185f, 0.0361415483f, 0.180650815f, -0.359208494f, -0.638204992f, -0.270666391f, -0.266165555f, 0.438650519f, -0.572073221f, -0.835177958f },
    { -0.105109036f, 0.354397953f, -0.205884859f, 0.100933485f, -0.206501827f, -0.276248604f, -0.0880974606f, -0.250812531f, -0.0405816138f, -0.0428513847f, -0.236430615f },
    { -0.256534636f, -0.2428509f, 0.0211796053f, 0.0934331566f, -0.23115389f, 0.100963213f, -0.000537472428f, -0.211910114f, -0.584403217f, -0.143691212f, -0.00875808205f },
    { -0.397817761f, -0.53331852f, 0.192988902f, 0.0666710138f, 0.016977353f, -0.100468196f, 0.0380652584f, 0.123198129f, -0.0388457067f, 0.170576051f, 0.0884498656f }
};

static constexpr float DQN_FC1_BIAS[DQN_HIDDEN_SIZE] =
{ -0.0113730021f, -0.346523881f, 0.176294267f, -0.286703974f, -0.237611488f, -0.092545189f, -0.358026743f, 0.199485108f, -0.00703583844f, -0.285299331f, -0.190078631f, -0.439969897f, -0.125874475f, -0.282464594f, -0.0719752982f, -0.0951462686f, -0.399163306f, -0.0373587534f, 0.246675819f, -0.336830378f, -0.163609967f, -0.341236383f, 0.410097063f, -0.282805949f, 0.584860563f, -0.14373979f, -0.15255253f, -0.260455072f, -0.138455868f, -0.0794796646f, -0.403363466f, -0.364762574f, -0.210949302f, -0.324310184f, 0.266581535f, -0.190545067f, 0.274229974f, -0.275799364f, -0.0376028456f, -0.232598841f, 0.153850943f, -0.27473563f, -0.382556021f, 0.100933589f, -0.502861083f, 0.0913211927f, -0.386013269f, -0.150457665f, -0.0823046714f, -0.148693025f, -0.343703151f, -0.171377257f, -0.213999897f, -0.467280388f, -0.228421509f, 0.279771179f, -0.370447695f, 0.246294662f, -0.385881484f, -0.232539207f, -0.0849194452f, -0.522598803f, 0.429820001f, -0.370302677f, -0.447117448f, -0.290895432f, 0.0642072409f, -0.387692094f, -0.184778258f, -0.552116692f, 0.150364876f, -0.449669093f, 0.20225504f, 0.107142612f, -0.10212028f, -0.153473496f, 0.120414875f, -0.404136032f, -0.0293724947f, -0.243357778f, 0.383164495f, 0.455233753f, 0.0387555882f, -0.0590462275f, -0.592247665f, -0.471455336f, 0.00779686682f, -0.460169464f, 0.186469719f, 0.259247571f, 0.191094115f, -0.275971115f, -0.0666595995f, -0.168940529f, -0.209276035f, -0.142847598f, -0.0998510644f, -0.247879803f, -0.553833902f, 0.146453753f, 0.196844175f, -0.448329747f, 0.357991725f, 0.379916549f, -0.258101523f, -0.219698802f, 0.0929214135f, 0.00597769953f, -0.294769406f, -0.477464467f, -0.396131337f, 0.394123405f, -0.162232563f, -0.423774362f, -0.278117597f, -0.274203777f, -0.194745824f, -0.180214182f, -0.0964718536f, -0.267126948f, -0.398577332f, 0.117954873f, -0.309821546f, -0.12011233f, -0.223879024f, -0.13422893f, 0.454134852f, 0.169127703f };

static constexpr float DQN_FC2_WEIGHTS[DQN_HIDDEN_SIZE][DQN_HIDDEN_SIZE] =
{
    { -0.0249837618f, 0.0494673029f, -0.0874274895f, 0.0143862488f, -0.0986522958f, -0.083577849f, -0.302473992f, 0.252845794f, 0.17982921f, -0.0608273745f, -0.486094385f, -0.0247924682f, -0.00917132571f, 0.0951026082f, -0.00113158685f, -0.0840567499f, 0.212343484f, -0.100830086f, 0.142480016f, -0.0805748701f, -0.05598047f, -0.076298289f, 0.0917384699f, 0.0576663725f, 0.323985696f, 0.0121695865f, 0.0565456413f, -0.134313345f, 0.00657539302f, -0.0372104049f, -0.548570395f, 0.112180345f, 0.0837937072f, -0.397807091f, -0.11889372f, -0.0562016889f, 0.114141494f, -0.238369063f, -0.463068515f, -0.139451921f, 0.150411546f, -0.261496633f, 0.125550151f, 0.114684097f, -0.060489729f, -0.00178443966f, -0.275139034f, 0.0709794462f, -0.00876510981f, 0.0743063837f, -0.124305494f, -0.265754908f, -0.0873716846f, -0.106996007f, 0.1397347f, 0.086122863f, -0.263084173f, -0.177634105f, -0.275816232f, -0.147461414f, 0.218789428f, -0.0465393513f, 0.165414482f, 0.10434182f, -0.468551517f, -0.366381139f, -0.115818717f, 0.205511689f, -0.296982467f, 0.445309937f, -0.614862621f, -0.316654325f, 0.301122874f, 0.483023375f, 0.20354414f, -0.0552330911f, -0.0605258346f, -0.350638509f, -0.298531771f, 0.0400262214f, -0.0332588553f, 0.340052038f, -0.0692910403f, -0.445841461f, -0.0492505431f, 0.248681992f, -0.00395882502f, -0.605970621f, -0.272420377f, 0.120072067f, -0.134873748f, -0.809731066f, -0.115882196f, -0.170361653f, -0.378572673f, -0.0857706293f, -0.112742841f, -0.274023175f, -0.0911695957f, -0.322429925f, 0.0189423095f, 0.0595681295f, 0.0550301969f, 0.0582539886f, -0.0835225657f, 0.0268017612f, -0.0440423004f, 0.287380636f, 0.125610277f, 0.103902489f, 0.0549202859f, 0.311121643f, -0.115506642f, -0.0998804197f, -0.231902912f, -0.173419893f, -0.17157276f, 0.0528545268f, 0.0983130261f, 0.0512584746f, 0.0606742129f, 0.0382205807f, 0.0197600052f, 0.0564830899f, 0.072513245f, 0.0326818116f, -0.000970241264f, 0.0147460662f },
    { -0.0424361117f, 0.0736558363f, 0.0113826459f, -0.0416282043f, -0.0188648496f, -0.0035344474f, 0.0206334163f, 0.0113377506f, -0.0388594419f, -0.033033777f, -0.0387776084f, 0.0773891807f, -0.0853701681f, 0.063907966f, -0.0338268988f, 0.0709414035f, -0.0350176282f, -0.097061865f, -0.0131131057f, 0.0530402958f, -0.120430849f, 0.0248786341f, -0.0248887911f, -0.0625208914f, 0.0705099329f, 0.0400826968f, -0.0914897546f, -0.000208550977f, 0.0575155355f, 0.0526809879f, -0.042420499f, -0.0446499586f, -0.0539677516f, -0.0601114742f, -0.0348659456f, -0.0124628255f, 0.0709890798f, -0.032801792f, 0.0196478926f, 0.0213278551f, -0.0438663438f, 0.019261606f, -0.117004901f, -0.0658078045f, -0.0674906522f, 0.0157390218f, 0.0470499024f, -0.0928092152f, 0.0454635732f, -0.00454828376f, -0.11393179f, 0.0555884317f, 0.0075579253f, -0.11855416f, -0.0695304424f, 0.0367306732f, 0.0573913045f, -0.0544821322f, 0.0468028225f, -0.049791541f, 0.0501743443f, -0.0236456245f, -0.0339492373f, -0.0766564086f, 0.0634722784f, -0.0717365965f, -0.00200925488f, -0.0972459465f, -0.0427099206f, 0.0704307035f, 0.0326010399f, -0.0850061327f, 0.00930458773f, -0.0271607339f, 0.00681000017f, -0.0510443039f, -0.0340149589f, 0.0554104112f, -0.0751431957f, -0.0715197697f, -0.0822912306f, 0.0463654064f, 0.0637155622f, 0.0516353287f, -0.0891094878f, -0.0784383044f, -0.0742469952f, -0.0111627327f, -0.0110628325f, -0.0650413036f, 0.0462258831f, 0.0295840092f, 0.0449904092f, -0.0861355513f, -0.0684128702f, -0.0539566651f, 0.0241626333f, -0.0385924093f, -0.104601763f, 0.0518554039f, -0.0127020907f, 0.0390039422f, -0.06327191f, -0.0467943214f, 0.0571305566f, -0.0734950379f, -0.0146572813f, -0.0683139712f, -0.11161413f, -0.0552878194f, 0.0530581288f, -0.00509370258f, -0.0112589896f, 0.0426938944f, -0.0913829505f, 0.0439997725f, 0.0262773838f, 0.00789893512f, -0.0983263478f, -0.0460830815f, 0.0262235105f, -0.0169581398f, 0.0118734445f, -0.0240741391f, 0.0339301266f, -0.0452081785f, -0.0229458734f, -0.118704952f },
    { 0.217663735f, -0.570583224f, -0.409783393f, -0.274800241f, 0.126709118f, 0.354470998f, -0.599302053f, -0.624153256f, 0.099929601f, 0.175891265f, 0.0341830328f, -0.267257571f, -0.68926394f, -0.619998932f, -0.229290947f, -0.0198081173f, -0.227292567f, -0.119949155f, 0.0494963527f, -0.2892887f, -0.117395297f, -0.0248622261f, -0.00757790543f, -0.268274605f, -0.565189898f, -0.0552643016f, 0.222607642f, -0.0801318437f, -0.659396648f, -0.498479724f, -0.501705885f, -0.103077613f, -0.127055317f, 0.137552559f, -0.489370048f, -0.21530889f, -0.802566648f, -0.10184481f, -0.0564995185f, -0.403173953f, -0.760878742f, -0.556136906f, -0.568904519f, 0.238310486f, 0.242806315f, -0.256527573f, -0.297033787f, -0.113420993f, -0.114389718f, 0.0693915859f, -0.0556616001f, -0.0506457351f, -0.701900423f, -1.00841606f, -0.420475811f, -0.590328157f, -0.207253873f, -1.05555511f, -0.296761423f, -0.233625591f, -0.662090182f, -0.513924062f, 0.103096902f, -0.44406268f, -0.302285552f, -0.626633108f, -0.241875783f, -0.763368964f, 0.0497800633f, 0.489644796f, 0.00595319411f, -0.00637336075f, -0.146219611f, -0.328370869f, 0.179906681f, -0.274261832f, -0.0155443382f, -0.497941703f, -0.397405505f, 0.0441979729f, -0.00143090962f, -0.551052094f, -0.154793799f, 0.0619135089f, -0.37630707f, -0.222010598f, -0.577148139f, -0.113174453f, -0.141723096f, -0.261887461f, 0.151022911f, -0.146968886f, -0.777908802f, -0.242536098f, -0.943381488f, -0.144734845f, 0.176527351f, -0.274707645f, 0.448212504f, -0.129329905f, -0.510917723f, 0.24763079f, -0.85611999f, -0.213585168f, -0.279985517f, 0.014634029f, 0.143403083f, -0.0361339338f, -0.476957947f, -0.362731546f, 0.0155316787f, -0.0233226847f, -0.00139435451f, 0.272203594f, -0.387313873f, -0.365467012f, -0.410318375f, -0.1408723f, -0.359382153f, -0.853446007f, 0.0662165433f, 0.095123589f, 0.311673731f, 0.0892494619f, -0.710739017f, -0.0199921858f, -0.0205850489f, 0.144228071f },
    { -0.0441023782f, 0.00978340954f, 0.000296540675f, -0.0132414242f, -0.0740823597f, -0.0361205265f, -0.0896513388f, 0.0344487354f, -0.0500761755f, -0.0870319158f, 0.039672751f, 0.0584421456f, -0.096634008f, 0.0240598582f, -0.0940662175f, 0.0272485949f, -0.100732408f, -0.0814685449f, 0.00568105886f, 0.0117316674f, -0.0169600155f, -0.0455986634f, -0.0227545258f, 0.0422745571f, -0.0916062072f, -0.0256966501f, 0.00271704071f, -0.0778828338f, -0.0491788611f, -0.0904728621f, -0.0530058332f, 0.0522072539f, -0.0358259715f, -0.0480432734f, 0.0472488776f, 0.016650131f, -0.0137190446f, -0.0437226035f, -0.0581771359f, -0.0817585811f, 0.0250896849f, 0.0618225411f, -0.0844087377f, 0.0162245259f, -0.0179416686f, 0.0542379133f, -0.0302203763f, 0.0383287594f, 0.0684253052f, -0.0532738157f, 0.0245874599f, -0.107855432f, 0.0437840223f, 0.0111223981f, -0.0577824228f, -0.0600183643f, -0.00665520504f, -0.116434284f, 0.0757012889f, 0.0673072264f, -0.0589706451f, -0.0561308786f, -0.0814645067f, 0.0647861436f, -0.00991403218f, -0.0336876065f, -0.0438018478f, -0.00190548552f, 0.0352722332f, -0.0420748517f, 0.0368385836f, -0.0586732067f, 0.0223353133f, 0.070594199f, -0.0201980844f, -0.0148391612f, -0.0597073957f, -0.107693024f, -0.0305965059f, -0.0856112465f, 0.0510265827f, -0.0259902738f, 0.0298554227f, 0.022066921f, -0.0420014523f, -0.0808673277f, 0.0202651564f, -0.0580737814f, -0.0166490059f, -0.0746426582f, -0.037446063f, -0.0344286673f, -0.0824910626f, 0.0115298219f, 0.0842706189f, -0.0695056915f, -0.017338641f, 0.0301133189f, -0.0681557134f, -0.0905901194f, -0.0412748307f, -0.0964706615f, -0.0431805141f, 0.031138178f, -0.114680752f, -0.110057741f, 0.0189524554f, -0.0827807933f, -0.0234488212f, 0.0501775146f, -0.0416172519f, -0.0850859433f, 0.0733102933f, 0.0132815605f, -0.0493829921f, -0.036783535f, 0.0207383782f, -0.0853812546f, -0.0702005103f, 0.0327513292f, -0.0565953441f, 0.0594479665f, 0.0707919225f, 0.0361016393f, 0.0798990056f, 0.0268023629f, -0.0483554527f, -0.111564927f },
    { 0.0131925195f, -0.0149838598f, -0.0541008711f, -0.0174103025f, -0.0921530947f, 0.0448611006f, -0.127875492f, -0.0308199171f, -0.0259115547f, -0.10470742f, 0.0752593875f, -0.0100124255f, -0.0743920207f, -0.128218725f, 0.0396386087f, -0.088296771f, 0.058533188f, 0.0342493206f, -0.063072145f, 0.0632957667f, 0.0252560992f, -0.045439098f, -0.00730668986f, 0.0725851506f, -0.0854571313f, -0.0251714755f, -0.0554329157f, 0.0362140462f, -0.0464905426f, 0.0280763488f, -0.0139560504f, -0.00187923317f, 0.0336734802f, -0.0344478674f, -0.0167451389f, -0.0823942497f, 0.0201144665f, -0.0774617121f, 0.0142839858f, -0.0521984436f, 0.0695370808f, 0.018743623f, 0.0529733263f, -0.0818540379f, -0.108169951f, -0.032072816f, 0.0128248185f, -0.0100773154f, -0.0369883403f, 0.0349139124f, -0.0053193057f, -0.0315292217f, 0.0273551252f, -0.00434942171f, 0.0358441435f, 0.0329861939f, 0.0381978638f, -0.0810415596f, -0.0283827018f, -0.00719252555f, 0.0854051337f, -0.0144916242f, -0.104414374f, 0.0460515805f, 0.0590389855f, -0.0295774713f, -0.00969691202f, -0.0565369613f, -0.00642974954f, -0.0641237199f, -0.00115669461f, 0.00595216965f, -0.0201786291f, 0.0701376721f, -0.0389578789f, -0.100190744f, 0.0126693239f, -0.0576519072f, 0.0119227096f, -0.0462001823f, 0.00540837646f, 0.0121034281f, -0.067189917f, -0.0829445869f, 0.0220471248f, 0.0243733525f, 0.0165900029f, 0.0053586876f, -0.0481029227f, -0.0359729491f, 0.012625902f, -0.0887946784f, 0.0311074369f, -0.00758746173f, -0.099345915f, -0.0628391206f, 0.00557140261f, 0.0257767215f, -0.0445901938f, -0.00743146846f, -0.0957367122f, -0.109650441f, -0.0675173327f, 0.0235388726f, -0.0977402627f, -0.0658542812f, -0.0835190415f, 0.0185781568f, -0.0266543683f, -0.0749431849f, -0.087743476f, -0.00620429497f, 0.0861246511f, -0.0439127833f, 0.0498772673f, -0.0373587422f, -0.0129173817f, -0.00897531025f, -0.0347680598f, -0.027916126f, 0.061286144f, -0.0760660544f, -0.0146664735f, -0.0284764133f, -0.0588631704f, -0.00366933155f, -0.126484483f, 0.0347378291f },
    { -2.4363173e-05f, 0.150941461f, -0.301647395f, -0.096602805f, -0.0242078323f, 0.121596754f, -0.229741246f, -0.204724193f, -0.254768759f, 0.0961964056f, -0.190296799f, 0.0268010683f, -0.0785864964f, -0.167712912f, -0.152917817f, -0.11564222f, 0.0485656485f, -0.0696194544f, -0.421571165f, -0.189325988f, -0.0655108765f, -0.267057061f, -0.307355493f, -0.108005643f, -0.0581910089f, -0.0185390525f, -0.126565605f, 0.00684193894f, 0.0911661163f, -0.495519906f, 0.224143177f, 0.0249315407f, -0.420688242f, -0.0770069361f, -0.0151824923f, -0.188836545f, -0.26956284f, -0.195438847f, -0.412059933f, -0.264255553f, 0.291112423f, -0.210717767f, -0.00870360341f, -0.0927490667f, -0.195654109f, -0.198585391f, -0.0226643197f, 0.0799650624f, -0.0963904411f, -0.367234737f, -0.0887533724f, -0.0795520768f, -0.0182167646f, -0.0651741475f, -0.11077708f, -0.538680494f, -0.154870033f, -0.0547521897f, 0.000821733091f, -0.0415899456f, -0.0401913747f, -0.23869051f, -0.152164906f, -0.771371722f, -0.183126047f, 0.0165786855f, -0.3216905f, -0.193418607f, 0.0353791341f, -0.227810398f, -0.180655524f, 0.0458342507f, 0.012626823f, -0.514965296f, 0.0312167611f, -0.425943375f, -0.0879642218f, -0.153301597f, 0.021351561f, -0.18244864f, -0.333458632f, -0.23160468f, -0.198556319f, -0.0553589314f, -0.139619023f, -0.428221017f, -0.152621925f, -0.206008986f, -0.152871743f, -0.447231025f, -0.221595168f, -0.342151016f, -0.0594237708f, 0.500718415f, -0.319527924f, -0.123862475f, -0.31366989f, -0.307016969f, -0.0452656485f, 0.286453217f, 0.0675026625f, -0.288107395f, -0.386136293f, -0.173703358f, -0.00345732109f, -0.200749785f, 0.0426236019f, -0.23931852f, -0.45372504f, -0.237334058f, 0.111201085f, -0.267839819f, -0.0440286621f, -0.363877863f, -0.118627012f, -0.0479972437f, -0.265567809f, 0.0160166211f, -0.0178914163f, -0.128021255f, 0.0900081471f, -0.106576204f, 0.00446241442f, 0.195924252f, 0.115166366f, -0.189465985f, -0.510415375f, -0.0856979936f },
    { 0.015081346f, -0.0642866716f, 0.0741183832f, 0.0301285516f, -0.0980199352f, -0.0683557391f, -0.0470241681f, -0.0496450923f, 0.0108727012f, 0.00307645113f, 0.0692189634f, 0.0110149123f, 0.0365981907f, -0.000274617632f, -0.0477604605f, -0.015757313f, -0.0553390384f, -0.00641126884f, 0.0164384954f, -0.0824743211f, 0.0177794322f, -0.104701534f, -0.0530194119f, 0.01847139f, -0.111933313f, -0.045903571f, -0.0850131661f, 0.0349741206f, -0.0592253171f, -0.117614612f, -0.0751412809f, -0.0931729972f, 0.0298308861f, -0.0692934841f, -0.117394298f, -0.0597931519f, 0.0417384915f, -0.0753758624f, 0.00975045748f, 0.0508515686f, 0.0147373909f, 0.0527362041f, -0.0193378534f, -0.000759612769f, -0.0352988318f, -0.0624513403f, -0.0638019517f, -0.0581291281f, 0.0471039899f, 0.0315666944f, -0.0194538813f, 0.00533169229f, -0.0792104304f, -0.0763414726f, 0.0539998859f, -0.112549767f, 0.0438397937f, -0.0304267071f, 0.0530052409f, 0.000864028931f, -0.0187479332f, -0.0852652639f, -0.137491897f, 0.042411413f, 0.0465951301f, 0.00664953841f, -0.11221607f, -0.110527277f, 0.0358853787f, 0.0592931435f, 0.071082823f, -0.0601709709f, 0.0719250068f, 0.00433051027f, 0.00244656438f, 0.0383235961f, 0.00168992835f, -0.0474457704f, -0.0807848126f, -0.0476930141f, 0.0187484529f, -0.113679737f, 0.0430076346f, -0.105391562f, 0.0104317944f, 0.0170432292f, 0.0283933058f, -0.0090208156f, -0.0799303129f, -0.0511160456f, 0.0378748253f, 0.0725261495f, -0.050281547f, 0.00743010687f, 0.0675218031f, -0.0385610051f, -0.0331529528f, 0.0231178422f, -0.00931169931f, -0.0869413391f, -0.0972808823f, -0.0174415074f, 0.031935744f, -0.0997133628f, -0.0985898376f, 0.00540346885f, -0.0909652859f, 0.0676691756f, -0.0624018498f, -0.0315231159f, -0.114795834f, 0.0657602847f, 0.0299317539f, 0.0232737027f, -0.0334637761f, -0.102577746f, 0.0795457885f, 0.0361756943f, -0.0681011304f, 0.037753094f, 0.0464305729f, -0.0665549785f, -0.0349002816f, -0.0182695016f, 0.0484356917f, -0.0736317933f, 0.0138624376f, -0.123321861f },
    { 0.383675843f, -0.240821928f, 0.296950728f, -0.206554279f, 0.15719597f, 0.25424239f, -0.0773827434f, 0.168983877f, 0.207816333f, -0.230371237f, -0.100850411f, -0.112109415f, 0.0852748379f, -0.0432238951f, 0.570687056f, 0.0154877612f, -0.0371673107f, -0.0672010258f, -0.0964823887f, -0.276170641f, -0.19094044f, -0.207302704f, -0.167033032f, -0.0662009716f, 0.0500884019f, -0.157573f, 0.304371655f, -0.192064464f, -0.472260594f, -0.0624215342f, 0.196875632f, -0.00843137689f, -0.0458861105f, 0.210251749f, 0.102789298f, -0.289072126f, -0.0962276459f, -0.207390711f, 0.0546476133f, -0.107250996f, -0.959411263f, 0.0779466182f, -0.056849122f, 0.911377072f, -0.00596444402f, -0.100827456f, -0.192531824f, -0.332850814f, 0.0726700574f, 0.0889919624f, -0.149240911f, -0.208893329f, 0.0393366925f, 0.171834946f, -0.163670108f, 0.201554939f, -0.232320532f, 0.138487607f, 0.0136771724f, 0.0777477622f, 0.0904500932f, -0.119826041f, 0.0868142918f, 0.115200102f, 0.0973534435f, 0.0657485574f, -0.0266150385f, -0.172494635f, -0.23451823f, 0.75335139f, -0.158572093f, -0.0595293976f, 0.770193756f, 0.624669552f, 0.467684031f, -0.0441478789f, 0.191626012f, -0.116838485f, 0.455021441f, -0.557794452f, -0.0263216905f, 0.0445164293f, -0.11880707f, 0.54518342f, -0.0781550109f, -0.529275715f, -0.0647195205f, 0.162172645f, 0.0872494206f, -0.235666648f, 0.240856692f, 0.129959479f, 0.0165037047f, 0.661909461f, 0.221842721f, 0.0987728089f, 0.203542173f, -0.22796081f, -0.0969265699f, -0.00645734277f, -0.0614183955f, -0.0435219556f, 0.167005733f, -0.0183530506f, -0.546628058f, -0.121029645f, 0.368151933f, -0.648573935f, -0.117195964f, -0.16482842f, -0.418856263f, -0.409160972f, 0.958744347f, 0.0047392901f, -0.000268567674f, 0.0230118465f, 0.196925938f, 0.0144418916f, 0.197132319f, 0.201186031f, 0.0192394387f, -0.266795337f, -0.124325365f, -1.16082203f, 0.129440114f, 0.180677623f, 0.0344349071f, 0.0637089387f },
    { -0.474808186f, -0.0368933529f, 0.00179053738f, 0.0376802348f, -0.0769880861f, -0.0687133148f, -0.408307165f, -0.534830809f, -0.228204668f, 0.019604411f, 0.0467087254f, -0.477331221f, -0.252947479f, -0.04140101f, -0.438809097f, -0.0727206767f, -0.493676394f, 0.153576717f, -0.115459874f, 0.0439280309f, 0.116268359f, 0.0317972451f, 0.0938056111f, 0.100748152f, 0.350438327f, 0.00821094774f, -0.166569978f, 0.0820925012f, -0.41508159f, -0.0687223896f, 0.283388793f, -0.273325324f, -0.345980108f, 0.0182304569f, 0.417314559f, 0.0783027038f, 0.0113924155f, 0.129413769f, -0.282753259f, -0.0606649034f, 0.0402972326f, -0.137609109f, -0.0526962876f, -0.15528518f, 0.0268627238f, -0.083132036f, -0.442455381f, -0.0261355788f, -0.075093545f, -0.234417155f, -0.00469981087f, 0.137062207f, 0.00747835077f, 0.0225901213f, -0.302106678f, 0.0672382861f, 0.0851150751f, 0.212617651f, 0.104734778f, -0.220499814f, -0.926664412f, -0.583016634f, 0.113880418f, -0.628807664f, 0.207711414f, 0.202097833f, -0.0100110136f, -0.337837517f, 0.203472495f, -0.2083527f, -0.101331979f, -0.0384188853f, -0.00350641925f, -0.79452014f, -0.625287294f, 0.0399663374f, -0.000875481113f, 0.0565154292f, 0.178077877f, 0.043808613f, -0.0336025469f, 0.220297903f, -0.0977212042f, 0.207463533f, -0.109327473f, -0.246933609f, 0.019043956f, 0.0894880891f, 0.021458108f, -0.149386317f, 0.0282721892f, 0.158784926f, 0.379175931f, -0.0266464446f, 0.0994538292f, -0.171120211f, 0.303461343f, 0.0345324427f, -0.0507614203f, 0.467215896f, 0.111942276f, -0.122091264f, 0.0235313419f, 0.334327787f, 0.28172344f, -0.313745201f, -0.841608167f, -0.788773656f, -0.555060267f, 0.470433742f, -0.0813914686f, -0.0902389735f, -0.109951377f, 0.189815521f, -0.297151208f, 0.0442655571f, 0.00726246135f, 0.0668793321f, -0.366784781f, -0.111741774f, -0.0578777902f, -0.161098495f, -0.546585321f, -0.434565097f, -0.19601956f, -0.0745875314f, 0.110642657f, 0.0343825109f },
    { -0.184624955f, -0.0705150217f, -0.144756541f, -0.104212239f, 0.0393819921f, 0.113933064f, -0.101802528f, -0.358106852f, -0.115884632f, -0.0890028477f, 0.172881812f, -0.050335139f, -0.29099232f, -0.213053897f, -0.0720215961f, -0.0128454119f, 0.00388574414f, -0.0643634126f, -0.173970878f, -0.189680532f, -0.137012661f, -0.258304f, -0.0730744898f, 0.132189572f, -0.0364786908f, -0.152535126f, 0.0258660838f, -0.0548396595f, 0.0613638461f, -0.119136266f, -0.221087605f, -0.0182928573f, -0.0240904093f, -0.17534402f, 0.0942167789f, 0.0195047483f, -0.104760356f, 0.0241229329f, 0.461461991f, -0.136289269f, -0.0397229604f, -0.021772787f, -0.077357173f, -0.398266196f, -0.109219581f, -0.0928246006f, -0.194570079f, 0.0127470968f, 0.242461324f, -0.288325608f, -0.0278552938f, 0.145764098f, -0.116388202f, -0.0511976853f, -0.220413923f, -0.0507210605f, 0.257650137f, 0.190140843f, -0.0904889479f, 0.0594475865f, -0.476492792f, -0.385819316f, -0.0898825675f, -0.36857447f, 0.0874829441f, 0.052390527f, -0.0271868315f, -0.100422956f, 0.208378464f, -0.684342742f, 0.0404420421f, -0.0701007172f, -0.288059205f, -0.581597507f, -0.321079314f, -0.242435858f, -0.126122236f, -0.357154906f, -0.0573955178f, -0.294922143f, -0.0868179351f, -0.060188029f, -0.110093936f, 0.0131281549f, -0.418790936f, -0.17497912f, -0.208232969f, 0.211481735f, -0.0302560944f, -0.100800291f, -0.100706652f, -0.101825759f, 0.0651037619f, 0.270059019f, -0.163659006f, -0.0586790331f, 0.10839282f, -0.0123861777f, 0.00322459382f, 0.383448929f, -0.0632562712f, -0.392519504f, -0.136345282f, 0.287371933f, -0.189705551f, 0.0765387416f, -0.200239137f, -0.575572014f, -0.0397127941f, -0.142918184f, -0.215962276f, -0.16611357f, 0.198681891f, 0.0176495556f, 0.108577631f, 0.00573040033f, -0.195818871f, 0.165012002f, -0.0130742677f, -0.193128943f, -0.313635617f, -0.246756822f, 0.224160329f, 0.123901777f, 0.171705619f, -0.107310548f, -0.17386356f, -0.195870727f },
    { -0.0609339625f, -0.0825235173f, -0.0785404965f, -0.0683887973f, -0.0293248352f, -0.0448441096f, -0.0768554062f, -0.161906958f, -0.147564396f, -0.0786816478f, -0.0706215426f, -0.101721503f, -0.145877257f, -0.0178541373f, -0.137335718f, -0.0669497475f, -0.0874857008f, -0.113741428f, -0.152253717f, 0.0438996628f, -0.0410411097f, -0.0964186043f, -0.0442035198f, -0.203038588f, 0.000488520833f, -0.0645995066f, -0.0407092646f, -0.101295933f, 0.0294521265f, -0.0848591849f, -0.00372101087f, -0.127124831f, -0.081049718f, -0.110840224f, 0.0681878105f, 0.047770679f, 0.00649056537f, -0.144909561f, 0.0798370317f, -0.0871631429f, -0.0491320007f, -0.0409203395f, 0.0193901286f, -0.308488667f, -0.0939259306f, -0.16966711f, -0.0558288544f, -0.0529998541f, 0.00729397871f, -0.0294709262f, -0.0410791747f, -0.0459758304f, -0.015662713f, -0.0393240526f, 0.0508432835f, -0.12382856f, 0.0278913975f, 0.0778396651f, 0.0217580944f, -0.0958367735f, -0.394185334f, -0.00443730596f, -0.125169903f, -0.13570179f, 0.0709961057f, 0.0903604478f, -0.0344323218f, 0.0208680984f, 0.0612628385f, -0.660027802f, -0.0541511476f, -0.109901063f, -0.139498189f, -0.282153368f, -0.249913231f, -0.17704694f, -0.0183471758f, 0.0533318743f, 0.0535909906f, -0.268366933f, -0.14500539f, -0.12816745f, 0.0109994933f, -0.0032295743f, -0.074785769f, -0.207643062f, -0.0475266278f, 0.0924313962f, -0.0489735976f, -0.130092919f, -0.254143059f, 0.0268674251f, -0.0108030699f, 0.0701990277f, -0.13441363f, 0.0353964455f, 0.112693518f, 0.00511141308f, -0.0348881967f, 0.130729765f, -0.0120932581f, -0.203889027f, -0.0683489814f, 0.201341897f, -0.207286939f, 0.0444429666f, -0.154938489f, -0.389120638f, -0.093948327f, -0.0530229323f, -0.027082514f, -0.0532324649f, -0.17997998f, -0.0552289076f, -0.103826858f, 0.00375446142f, -0.130177647f, -0.0195645876f, -0.0148699656f, 0.0467827357f, -0.100709528f, -0.154509932f, 0.0563734695f, 0.066821456f, 0.0936529189f, -0.0358921699f, -0.161298171f, -0.0395639129f },
    { 0.437786281f, -0.157377139f, 0.0762118772f, 0.0976151899f, 0.203483135f, 0.0401699841f, -0.702894866f, 0.410183519f, 0.15531303f, -0.0435413159f, 0.301725537f, 0.0904458463f, -0.084480077f, -0.158274546f, -0.0309362002f, 0.164119065f, -0.0886326507f, -0.0430293679f, 0.0795815289f, -0.203113496f, -0.0586774088f, -0.0687256902f, 0.00195183593f, -0.195333391f, 0.040855743f, -0.0478351004f, 0.281935751f, -0.337918937f, -0.00646059588f, -0.209638432f, -0.216179654f, 0.138525829f, 0.257983208f, 0.63362962f, -0.113958843f, -0.0526508763f, 0.0694612116f, 0.272771686f, -0.386008829f, -0.0531426817f, 0.121614918f, -0.173346922f, -0.500296116f, 0.135281891f, -0.272210389f, -0.0700402632f, 0.0736356378f, 0.357312173f, -0.233884349f, -0.084089607f, 0.0688375235f, -0.365612537f, -0.240205228f, -0.221033216f, 0.0794027746f, 0.177827433f, 0.11723385f, -0.395687431f, 0.435665578f, -0.103900835f, 0.418828726f, 0.0232589729f, 0.201509222f, 0.237605184f, -0.524025917f, -1.05753911f, -0.108406417f, 0.0900426432f, -0.931139052f, -0.0447718203f, 0.0866255835f, 0.206590474f, 0.306838363f, 0.75025326f, 0.30716449f, 0.00909873843f, -0.25418517f, -0.205582336f, -0.136606693f, -0.150842875f, -0.214743555f, 0.226217821f, -0.0350002311f, 0.0912859961f, -0.220936224f, -0.177538484f, -0.15230082f, -0.564642489f, -0.0873169228f, 0.0892493278f, -0.0103052147f, 0.344374031f, -0.0682847053f, 0.0639388859f, -0.473898947f, 0.00586211495f, -0.478594691f, -0.343903899f, -0.101122595f, -0.956326663f, -0.0767310262f, -0.179197147f, 0.0489342585f, -0.0235328525f, 0.0133702531f, -0.111834794f, 0.366145164f, 0.316749334f, 0.142755032f, -0.0567839928f, -0.0835325718f, 0.461678058f, -0.0775269419f, -0.13529408f, 0.0136848856f, -0.121908806f, 0.292946696f, 0.0345970728f, 0.080056034f, 0.172461614f, -0.0827802345f, 0.073257044f, 0.037460234f, -0.0953523815f, 0.154950574f, 0.106261693f, -0.160671756f, -0.201084062f },
    { -1.14351666f, -0.557563901f, -0.539874911f, -0.112351358f, -0.970914602f, -0.112815112f, 0.103287704f, 0.394134045f, -0.531543612f, 0.228613302f, 0.0970179215f, 0.445943415f, 0.485800475f, 0.277359724f, -0.573016107f, -0.0288069304f, 0.203525752f, -0.816614032f, -0.203841209f, -0.599193871f, -0.044363942f, -1.05113029f, -0.015588454f, -0.35278073f, 0.0774420053f, 0.0538076982f, -0.574879527f, -1.15660095f, 0.420339763f, 0.403081328f, -0.958846927f, -1.58145857f, 0.337382674f, 0.0373634771f, -0.621698081f, 0.252117783f, 0.0469210185f, -1.11405635f, -0.414771557f, -0.373637557f, -1.45162368f, -0.662587464f, -0.66789031f, -0.817368209f, -1.06620836f, -0.655264556f, -0.854780912f, 0.0340523496f, -0.0875077546f, -1.20778799f, -1.5306946f, -0.132427543f, -0.213013858f, -0.796762407f, -0.522822499f, 0.341938645f, 0.0218781382f, -0.100464076f, -0.567920446f, -0.0126212118f, -0.226070523f, 0.616110682f, -0.0920742899f, -0.694925547f, -0.164935425f, -1.27205098f, -1.14319384f, -0.760518491f, -0.137946472f, 0.0317136943f, -0.0475375727f, 0.187584668f, -0.505208194f, 0.302189499f, -0.87943995f, -0.442307919f, -1.28058302f, 1.07031465f, -0.0820547566f, 0.325111717f, 0.362347871f, -0.63183248f, -0.903303802f, -0.0514695831f, -0.538612545f, -1.49990046f, -0.427060932f, -0.162746713f, -0.655752957f, -0.761952817f, -0.163107902f, -0.0781938657f, -1.58239746f, -0.53602457f, -1.31611979f, -0.749200821f, -1.28045976f, -0.729412198f, -0.120188676f, -0.387964338f, -0.741650164f, 0.124848284f, -0.146734342f, -1.01343691f, -0.0142320683f, 0.40236631f, 0.547270358f, 0.434504271f, -0.770025134f, 0.66661936f, 0.517306507f, -0.860922635f, -0.26333195f, 0.46443516f, -0.566023648f, -1.11627114f, -0.756895185f, -0.20169282f, -0.954053819f, 0.215402514f, 0.59927088f, -0.17621012f, -0.574582398f, 0.23496367f, -0.157979354f, -0.41327548f, -0.0861808583f, -0.836990476f },
    { -0.573970735f, -0.0818655193f, 0.198013961f, 0.00113711599f, -0.161174968f, -0.042280525f, 0.0445662327f, -0.0843617171f, -0.00744567066f, 0.17764537f, -0.20566465f, 0.235720158f, 0.253075749f, 0.0103476318f, -0.0317656994f, -0.176873326f, 0.140186787f, -0.0269355793f, -0.0230087359f, 0.170273751f, 0.202330738f, -0.470272809f, -0.18189317f, 0.609042168f, 0.00965323579f, 0.00819464028f, -0.216248214f, -0.788708925f, -0.0692881644f, 0.119140528f, 0.449041307f, -0.0268925838f, -0.0637722909f, -0.359410375f, 0.191586241f, -0.129149109f, -0.0588310994f, -1.03992152f, 0.0863156915f, 0.0696795508f, -0.132687673f, -1.5297544f, 0.0132727465f, -1.29773295f, -0.0441360362f, 0.00759390648f, 0.0182741322f, -0.287477642f, -0.0820560455f, -0.282550842f, -0.44411236f, 0.0623081699f, 0.0448123924f, 0.251987368f, -0.00506413309f, 0.0487290248f, -0.497064859f, 0.158450663f, 0.213055611f, -0.310679287f, -0.304834127f, 0.132015988f, 0.100940339f, -0.270291775f, 0.196929023f, 0.172994256f, -0.174893364f, -0.184160635f, 0.496687621f, -0.518750072f, -0.258242458f, 0.0206496511f, 0.32341975f, -0.470945001f, -1.01463437f, -0.118954666f, -0.163306341f, 0.344462484f, 0.0211286284f, -0.0256376732f, 0.0207574479f, 0.144635409f, -0.346681833f, -0.0402634665f, 0.56429553f, -0.470871657f, -0.0724931508f, -0.625155687f, 0.105684601f, -0.0799303129f, -0.351211876f, 0.0230659135f, -1.2260499f, -0.113718189f, -0.0392570868f, 0.0661656633f, -0.260653585f, -0.0423861295f, -0.0373203456f, 0.262039751f, -0.21847792f, -0.152181357f, 0.142102599f, 0.203948051f, -0.095111534f, 0.191030458f, 0.206124708f, 0.086364612f, -0.215804964f, 0.320688874f, 0.163227752f, -0.197460949f, -0.0512251705f, 0.169914886f, -0.747454762f, -0.642353237f, -0.355686724f, -0.00206728466f, -0.587391078f, -0.0990441665f, -0.0750653893f, 0.230848417f, -0.318457246f, 0.041177664f, -0.713979602f, -0.443326056f, 0.33368665f, -0.268049151f },
    { -0.0977198631f, -0.213384956f, -0.0139787951f, -0.403152108f, -0.0490585901f, -0.0567287616f, -0.00954030827f, -0.287508488f, -0.0878898054f, -0.335122108f, -0.0819372088f, -0.0758328959f, -0.0848610252f, -0.00512333354f, -0.325120836f, 0.0141912699f, 0.386045188f, -0.0814607143f, -0.158606261f, -0.0614861064f, -0.0887225717f, -0.213375807f, 0.0413097292f, -0.125497803f, 0.0670719817f, -0.0460900329f, -0.37351352f, 0.0205167402f, -0.230061859f, -0.0857716203f, -0.121273413f, -0.15069668f, -0.226897418f, 0.234403133f, 0.150453895f, 0.0190315526f, -0.149228513f, 0.175837979f, -0.119048573f, -0.0932759717f, -0.064687036f, -0.0499143042f, 0.151480868f, 0.258993596f, -0.221008137f, -0.156962216f, 0.10286846f, -0.328253865f, 0.0199906416f, -0.103943415f, 0.0277386028f, 0.71848917f, 0.0487672128f, 0.0666240305f, -0.0849039331f, -0.0266231336f, 0.0336276405f, 0.0713191107f, 0.0401494205f, -0.0498537309f, -0.487854451f, -0.705443859f, -0.106842563f, -0.155572116f, -0.0785230473f, 0.132896706f, -0.0643166304f, -0.167636663f, 0.106146671f, 0.38193959f, 0.202332541f, -0.0305921957f, 0.0387055874f, -0.441401333f, -0.379577696f, -0.0785166174f, 0.0922280774f, 0.410873145f, -0.0523004532f, -0.109314844f, 0.0259771459f, 0.0477732792f, -0.134282887f, 0.240066513f, 0.0528170057f, -0.466067344f, -0.0901944116f, -0.0127687687f, -0.0425871201f, -0.16162087f, 0.32773149f, 0.488348931f, 0.0367386006f, -0.00319894869f, 0.109087154f, -0.124545842f, 0.0225103274f, 0.120655164f, -0.204629809f, 0.339520007f, 0.000132416186f, -0.0135507975f, 0.0189959016f, 0.231568679f, -0.140371412f, -0.0542323813f, -0.428032428f, -0.680316389f, -0.282603025f, 0.00825500954f, 0.00970527809f, -0.0534727424f, -0.11268042f, 0.0725072473f, -0.0934226811f, 0.161929145f, 0.0641230419f, -0.242321074f, 0.381121486f, -0.0486449115f, -0.00664312299f, -0.156342059f, -0.0544322766f, -0.289071679f, -0.699307442f, -0.131224811f, 0.0361667424f, -0.118275441f },
    { -0.0474284664f, -0.156188101f, -0.0603783056f, -0.295420825f, -0.0485632047f, -0.136281624f, -0.170098454f, 0.037696328f, -0.0720456094f, -0.185286641f, -0.134879887f, -0.155893877f, 0.0279787499f, -0.0586333014f, -0.20656614f, -0.113144197f, 0.0764483735f, -0.00474218884f, -0.0624714792f, -0.11747966f, -0.192926183f, -0.028103726f, -0.0636970922f, -0.00782398973f, -0.0156401619f, 0.0351328999f, -0.095620282f, -0.0874499157f, -0.121571645f, -0.0975405574f, -0.167404026f, -0.226226255f, 0.0539752878f, -0.997508883f, -0.343841523f, -0.252888083f, -0.146837622f, -0.0746365041f, 0.119023986f, -0.0672482476f, 0.187913328f, -0.370245367f, -0.31232059f, 0.342607081f, 0.0110393707f, -0.111874841f, -0.100060709f, -0.308203191f, 0.118759051f, 0.178087339f, -0.180452019f, -0.141716599f, -0.61871475f, -0.552435994f, 0.0583323725f, -0.20681937f, 0.0408026204f, -0.62605834f, -0.0741520822f, -0.10158731f, 0.0878874511f, -0.112601586f, -0.136000976f, 0.0629677176f, -0.663889468f, -0.244330585f, -0.237349257f, -0.0933924094f, -0.534717679f, 0.68710798f, 0.347035289f, -0.222990617f, 0.290992439f, 0.270251542f, 0.349289834f, -0.121920913f, -0.08382532f, -0.173751786f, -0.032940153f, -0.236771703f, -0.143922135f, -0.0759751424f, 0.111293763f, 0.133812502f, -0.41726625f, -0.195353404f, -0.317047387f, -0.766974628f, -0.0886854008f, -0.134572625f, 0.317021251f, -0.542839766f, -0.045808088f, 0.309574157f, 0.100496262f, -0.136223212f, -0.351611346f, -0.0955921859f, -0.249401033f, -0.141557023f, 0.0338865407f, -0.319946378f, -0.0659237504f, -0.168937042f, -0.0745091289f, -0.0765892267f, 0.0016708076f, 0.0112248296f, -0.109772466f, -0.0497198738f, -0.0135811223f, 0.123450905f, 0.0552283153f, 0.0439019203f, -0.555759907f, -0.276524007f, -0.0769425184f, -0.224760786f, -0.115596443f, 0.17172949f, -0.698647499f, -0.121615f, 0.0144953597f, -0.124162666f, -0.327169508f, -0.346932143f, -0.253547192f, -0.250760883f },
    { -0.590728879f, -0.280937374f, -0.0211114064f, -0.180588886f, -0.255347311f, 0.114623882f, 0.0609512143f, 0.00627411902f, 0.185679927f, 0.0525487289f, 0.366718501f, 0.00833609048f, -0.084023051f, -0.264906108f, -0.194818541f, 0.0223074686f, -0.161873415f, -0.194284514f, -0.113715999f, -0.468182236f, -0.18415232f, -0.288927227f, 0.146396965f, -0.359975547f, 0.0707095712f, 0.0637556985f, 0.132426739f, -0.168436795f, 0.0212953594f, -0.202493817f, -0.446064442f, -0.214104772f, -0.197053f, 0.509036839f, -0.0541294888f, -0.383515149f, -0.16275385f, 0.106444255f, -0.148884356f, -0.146491215f, -0.877232254f, 0.253750741f, -0.0492041036f, -0.394052416f, -0.487499714f, 0.0686443001f, -0.0474434011f, 0.262164295f, 0.0913880691f, -1.16990507f, -0.175016344f, -0.232655227f, 0.0207869243f, -0.329863846f, -0.175540581f, -0.237667292f, -0.0655973852f, -0.21409449f, -1.02209771f, -0.306034029f, 0.445632488f, 0.28297323f, -0.185117096f, -0.0229675081f, -0.0378613435f, -0.159805462f, 0.106692106f, -0.545270085f, -0.28573516f, 0.0688422993f, 0.294660181f, 0.461892128f, -0.028439045f, 0.609882355f, -0.252671778f, -0.154679567f, 0.178416267f, 0.177162752f, -0.0078375414f, 0.0232030526f, -0.00233438658f, -0.169798508f, -0.268969744f, -0.0422950573f, 0.401423484f, -0.00953416619f, -0.19274278f, -0.313221753f, 0.523482621f, -0.395868093f, -0.357007682f, -0.0437889919f, 0.194835573f, -0.365302622f, 0.0662949607f, -0.0215503108f, -0.00597124454f, -0.00864641741f, -0.15595834f, 0.252579361f, -0.720050633f, 0.135533795f, 0.211161613f, -0.477048814f, 0.123904251f, -0.283489078f, 0.272299469f, 0.266468167f, -0.0675796941f, 0.15070124f, -0.336573511f, -0.0148839187f, -0.620479584f, -0.0706359074f, -0.133558989f, -0.250599831f, 0.118657835f, 0.0299934018f, 0.250204504f, -0.22053045f, 0.13652046f, -0.069251202f, -0.137361571f, -0.229716823f, 0.173744902f, 0.0198041573f, -0.0987138227f, -0.186495706f },
    { -0.0863962993f, 0.00535819679f, 0.00412452267f, -0.0532686748f, -0.0456255302f, -0.0281585716f, -0.0453062057f, -0.023229897f, 0.0205556527f, -0.0745101869f, -0.0741586685f, 0.0294041559f, 0.0530491993f, -0.0391434841f, 0.00275550038f, 0.00548300892f, -0.0851622596f, 0.0454094671f, -0.0696617365f, 0.0523979068f, -0.0542308874f, -0.00292352587f, -0.00718084583f, 0.0825142041f, -0.0861633942f, 0.0561508127f, -0.07801532f, -0.0404800251f, 0.0049142167f, 0.0140228644f, -0.0255982578f, -0.00727208238f, 0.0204459503f, -0.0620950796f, -0.0509477668f, 0.069978714f, -0.017353192f, -0.00239652814f, -0.00232420117f, -0.00845596008f, -0.0537204258f, -0.015977297f, -0.0288506635f, -0.0277599469f, -0.0491347425f, -0.00726166414f, 0.0384909622f, -0.0957386866f, -0.0723465905f, -0.00366661698f, -0.0829727501f, -0.082471095f, -0.0759000555f, 0.0289792474f, 0.0467581972f, -0.0627003685f, 0.0326844417f, 0.0180050582f, -0.0268668178f, -0.0197768994f, 0.0852534398f, -0.0471735857f, -0.0862048939f, 0.0347570851f, 0.0768190399f, 0.0307621304f, 0.0118984384f, -0.0388049297f, -0.047918763f, 0.0156227797f, 0.0288180746f, -0.0232113916f, -0.0605225675f, -0.00726515055f, -0.0334833115f, -0.0743008703f, -0.0620126575f, -0.0383406281f, 0.0373885259f, -0.0254160296f, 0.0231314674f, 0.043833144f, 0.0672944114f, -0.0272216108f, -0.0486323088f, -0.076325193f, -0.0644929111f, 0.000701279496f, -0.0428353548f, 0.0475772545f, 0.0661615208f, -0.0546308495f, 0.0466311686f, 0.0556850955f, -0.0686690882f, 0.0563570932f, 0.0557874292f, 0.0553872027f, -0.00149950967f, -0.0225545987f, 0.0544838794f, -0.0644933283f, -0.0407983363f, -0.0389042161f, -0.0686327443f, -0.0184961371f, -0.0162932351f, 0.0774298683f, -0.0376048759f, -0.0366296023f, -0.0340651274f, 0.0152202621f, 0.0611130819f, 0.00627989322f, -0.047206942f, -0.0104973819f, 0.0593959615f, 0.0237772465f, -0.0462425612f, 0.0471888408f, -0.0742384046f, -0.0603064895f, -0.0399489403f, -0.051056806f, 0.0211158767f, -0.0589146875f, -0.0242056269f, 0.00461527659f },
    { -0.257525235f, -0.179510936f, -0.126044542f, -0.00580812385f, 0.0897292048f, -0.197732121f, -0.0104176523f, 0.164051726f, -0.0847697109f, -0.172133654f, 0.376908958f, -0.423218518f, -0.193594262f, -0.0911721289f, -0.0890923217f, 0.0104115615f, -0.336557329f, 0.2781519f, -0.0513576306f, -0.00126226188f, -0.0405741557f, -0.187540203f, -0.0743635297f, -0.0827086642f, -0.156275555f, 0.0703025386f, 0.136129677f, -0.637663364f, 0.0379210152f, -0.0284605213f, -0.180714667f, -0.330500364f, -0.424013615f, 0.0066451747f, -0.0299647413f, -0.125036746f, 0.133159563f, -0.20157817f, -0.0770159885f, -0.0610622428f, 0.104607701f, -0.481576353f, -0.105470784f, -0.383579493f, -0.18983528f, -0.026779525f, -0.000511354592f, 0.525476635f, -0.0667744651f, -0.434243739f, -0.108181328f, 0.0279671643f, -0.0566337369f, 0.0137581686f, -0.258315176f, -0.0824203715f, 0.0205054637f, -0.0174702201f, 0.588214636f, -0.254895091f, 0.236166209f, 0.0984160677f, -0.186198309f, 0.132691875f, 0.0433104187f, -0.34349525f, -0.0162599105f, -0.263708949f, -0.558045983f, 0.152465567f, -0.295749664f, 0.36362198f, 0.156283036f, -0.0215692129f, -0.405457199f, 0.049800612f, -0.358562022f, 0.200169832f, -0.244464129f, -0.207950398f, -0.199553028f, -0.0148185818f, 0.0602860861f, -0.493842125f, -0.0130393114f, 0.00794409122f, -0.14370051f, 0.153722256f, -0.0310615804f, -0.176569983f, -0.443969786f, -0.0726118907f, -0.634182751f, -0.377094179f, 0.265407234f, 0.0781920627f, -0.0944104791f, -0.460264266f, -0.540941358f, -0.0674802288f, -0.330650032f, -0.300501138f, 0.0454099588f, -0.468686581f, 0.0161782354f, -0.391079396f, 0.263676614f, 0.205597878f, -0.290297687f, -0.18324998f, -0.263913602f, 0.185132027f, -0.189084038f, -0.768185556f, 0.102718696f, -0.102199264f, -0.0266701858f, -0.136895016f, 0.124669529f, 0.151743233f, -0.366805255f, -0.531650007f, -0.197181493f, -0.0226530097f, 0.209013879f, 0.221778512f, -0.227833316f, -0.495168537f },
    { -0.0260284804f, -0.0280144084f, -0.0977136791f, 0.0183922704f, 0.0594997592f, -0.00478460221f, 0.0429837033f, -0.0319182351f, 0.0456413738f, 0.0698942393f, -0.0843776613f, -0.0110224932f, -0.0851645991f, -0.0894526988f, 0.00913011376f, -0.0862067267f, -0.0420827456f, 0.0478557386f, 0.0404354855f, -0.00106658507f, 0.00592473196f, -0.0766968951f, -0.0323490873f, -0.0536805987f, 0.0343846455f, -0.0276080146f, -0.0765505955f, -0.0922374353f, 0.0561135635f, 0.0321711525f, 0.00446102023f, 0.0107641136f, 0.022009341f, 0.064848654f, -0.017948214f, 0.0671545714f, -0.0650255084f, -0.0202230364f, 0.0446941219f, -0.0210045949f, -0.0892791748f, 0.0782471076f, -0.0893715918f, 0.0408912227f, 0.0534609407f, 0.032118205f, -0.0599252395f, 0.0716606528f, -0.0238246657f, 0.0563154593f, -0.0125353783f, 0.0359072201f, 0.00730446726f, 0.0663785711f, -0.0863062367f, 0.033196114f, -0.0150575889f, 0.050091628f, 0.00250142813f, 0.00475167483f, -0.0671851039f, 0.0462222472f, 0.0296547711f, -0.0522337258f, 0.0713522807f, 0.0135373995f, 0.0426633842f, -0.0715805963f, -0.0243680775f, 0.0827823654f, 0.0716416389f, -0.0192007646f, 0.0329650231f, 0.034689635f, -0.0848176777f, -0.00909293815f, -0.03613922f, -0.0215858556f, -0.0600898564f, 0.0097255148f, -0.0186297391f, 0.00513440091f, -0.0260947645f, 0.033035472f, -0.025583541f, 0.0587201826f, 0.0118167866f, -0.066479966f, 0.0555498861f, 0.0361071862f, 0.0338180028f, -0.0434005708f, 0.0192326438f, -0.0235313326f, 0.017327033f, -0.035839539f, -0.073843658f, -0.0268525686f, -0.0296515822f, -0.0654194355f, 0.00529268244f, -0.0925698951f, -0.0842254534f, -0.000637181103f, -0.00277517363f, -0.0844584033f, 0.00227277703f, -0.041198995f, -0.0960218757f, -0.0659907237f, -0.102656372f, -0.0411441438f, 0.0703494772f, 0.0101472083f, -0.0752311647f, 0.0333412774f, 0.036161989f, -0.064010039f, 0.0199961122f, -0.0166595727f, -0.00548511744f, -0.100781254f, -0.0650404617f, 0.037086159f, -0.0321730375f, -0.0810086429f, -0.0608228482f, -0.0705524758f },
    { 0.299357533f, -0.133530915f, -0.0525866561f, -0.259176672f, -0.09890946f, -0.146128267f, -0.0738693401f, 0.0257808119f, -0.0729654655f, -0.174987957f, 0.0387502387f, -0.0342137888f, -0.154711604f, -0.159032688f, -0.0933552459f, 0.068372421f, -0.00823545083f, -0.16381368f, -0.210193649f, -0.197786838f, -0.206853971f, -0.0933544934f, -0.233567551f, -0.0650771782f, -0.215200961f, -0.117203467f, -0.0924851969f, -0.0525062568f, -0.293063492f, -0.0068657212f, -0.131702974f, 0.0110583641f, 0.165869504f, 0.0183060504f, -0.111765385f, 0.0320282541f, -0.208633557f, -0.0296411067f, -0.114875413f, -0.102685891f, -0.0363910049f, -0.000176940826f, -0.0526027866f, 0.411320835f, 0.0142651638f, -0.153918892f, -0.145063072f, -0.0580042712f, 0.0714040101f, 0.353400171f, -0.211725965f, 0.0211344268f, -0.0300588608f, -0.143432811f, 0.163924292f, -0.176099613f, -0.139597714f, -0.130721182f, -0.076477915f, 0.03696068f, 0.168332756f, 0.0441698357f, -0.284702122f, 0.114778101f, -0.0626405105f, -0.0889563262f, -0.0703522041f, -0.0711101741f, -0.133910611f, 0.54740113f, -0.0174362641f, -0.0925709307f, 0.184007749f, 0.180224016f, 0.145892531f, -0.146134451f, -0.0742061809f, -0.118622229f, -0.0712548047f, 0.0150021613f, -0.165614963f, -0.16669032f, -0.107949018f, 0.040276967f, -0.0332011916f, 0.086671263f, -0.188705862f, -0.145791337f, -0.154080361f, -0.15848352f, 0.143402085f, 0.0316884406f, -0.0364814326f, 0.110990033f, -0.00760412961f, -0.0973501056f, -0.210269451f, -0.0507907681f, -0.0684055686f, -0.250399321f, -0.00250918861f, 0.0803607628f, -0.0984705612f, -0.272138208f, -0.0958247408f, -0.124415584f, -0.00669359695f, -0.0615092181f, -9.09241862e-05f, -0.0872654617f, 0.0177410841f, -0.0444967188f, 0.234046102f, -0.133927912f, 0.0287374798f, -0.224140406f, -0.0418725573f, -0.111045808f, -0.161720514f, -0.0291636307f, -0.026714392f, -0.187563151f, -0.194418028f, -0.127148315f, -0.258269131f, -0.0711350068f, -0.231905431f, -0.103533067f },
    { 0.0510133356f, -0.15886341f, -0.0343423933f, -0.0216632374f, -0.0108321495f, -0.0837409347f, 0.0124175427f, 0.0616068244f, -0.0431402549f, -0.102602392f, 0.0492296517f, 0.00646102428f, -0.0683484152f, -0.0681466237f, -0.0694752634f, -0.0663468689f, -0.126980364f, -0.0266545899f, -0.106416605f, -0.111130767f, -0.0404105708f, -0.112557717f, -0.092182003f, -0.0655900538f, 0.0677348077f, -0.079960458f, 0.0633152798f, -0.141269505f, -0.0135761034f, -0.00440369453f, -0.146773487f, -0.021359358f, -0.0751561299f, 0.0523594953f, -0.0629884452f, -0.0872796401f, -0.118402801f, 0.0585864112f, -0.0913088098f, -0.124648377f, 0.132686675f, 0.000532653416f, -0.0501478501f, 0.185230598f, 0.0735867321f, -0.104602568f, 0.0964014158f, -0.0381802358f, -0.224597856f, -0.105674021f, -0.103700913f, -0.112881839f, -0.132740781f, -0.175867036f, 0.0338618644f, -0.0142318616f, 0.00745712174f, -0.114462718f, -0.24403742f, -0.0310686938f, 0.0521441326f, 0.0300918315f, -0.00355107384f, 0.132033631f, -0.308164775f, -0.28649798f, -0.0141255129f, 0.211462274f, -0.497573316f, 0.237469539f, -0.0245992839f, -0.0516597964f, 0.0430612378f, 0.295229971f, 0.0978832617f, -0.137200445f, -0.135406032f, -0.181700274f, -0.0884815082f, -0.17099525f, -0.00126224593f, -0.0308414064f, -0.136025339f, -0.221174583f, -0.061388094f, -0.0621314198f, -0.0124245221f, -0.20342204f, -0.155337527f, -0.104933597f, -0.0484849215f, -0.0435294136f, 0.0312649645f, -0.157592788f, -0.160472751f, 0.0470620953f, -0.185631201f, -0.268272281f, 0.0188181773f, -0.0521492697f, -0.122112453f, -0.127119392f, -0.092885308f, -0.133138523f, -0.00633344799f, -0.135764256f, -0.000344765635f, 0.317733169f, -0.0483864173f, -0.0550713725f, -0.119022302f, 0.113956586f, -0.31484887f, -0.122262955f, 0.0785693824f, 0.075901933f, 0.0613325052f, 0.0165353119f, -0.0506051108f, -0.0468157381f, -0.0127824051f, 0.0144180758f, -0.00787414331f, -0.0396174267f, -0.0256211553f, -0.0129824942f, -0.102281936f, -0.120929413f },
    { -0.305513173f, 0.370391041f, -0.0225274581f, -0.518467546f, -0.918618381f, -0.604834914f, -0.148578033f, 0.19683136f, -0.140124932f, -0.816145539f, 0.0231591891f, -0.223508194f, -0.816966355f, -0.158299431f, -0.144159064f, -0.231356621f, 0.235292986f, -0.125926614f, -0.383553386f, -0.0457194671f, 0.0804793462f, -0.0585779324f, -0.437331408f, -0.850972474f, -0.0239152014f, -0.214568645f, -0.374120861f, -0.277881861f, -0.281669468f, -0.545789421f, -0.213928893f, -0.527849853f, -0.381493926f, -0.298428923f, -0.480161667f, -0.0619190335f, -0.478788406f, 0.0482123867f, -0.263550848f, -0.123622961f, -0.120429739f, 0.020963164f, -0.290601611f, -0.566645622f, 0.0144076943f, 0.0445089117f, 0.285849571f, -0.0671809241f, -0.111471936f, -0.422530919f, -0.396075249f, -0.748607874f, 0.185473785f, 0.0591770075f, 0.0587075166f, 0.138214886f, -0.086364679f, -0.0941842049f, -0.710886121f, -0.0199779626f, -0.566488206f, 0.410081834f, -0.122379422f, -0.194920003f, -0.839507759f, -0.2980268f, -0.10969042f, -0.0415451154f, -0.603253186f, 0.110948108f, 0.0934818983f, -0.0704955831f, -0.528481126f, 0.295189768f, -0.247329265f, 0.0455572307f, -0.32612586f, -0.273310751f, -0.822672546f, 0.138253972f, -0.129674882f, 0.0564120524f, 0.157185912f, -0.733518243f, -0.0871878415f, 0.107795671f, 0.0762900412f, -0.501013935f, 0.113434508f, -0.30880335f, -0.216095507f, -0.260182112f, -0.0862641856f, -0.567202866f, -0.426174402f, -0.162363589f, -0.558108747f, -0.0485187173f, -0.0225599706f, 0.0204141624f, -0.203654051f, 0.0670471042f, 0.0758567303f, -0.403884441f, -0.0853339732f, -0.341682196f, 0.35099718f, 0.269068718f, -0.0223248955f, -0.141323805f, -0.287355781f, 0.200473145f, -0.256846607f, 0.218390867f, -0.00764541794f, -0.277665377f, -0.35170123f, -0.318339795f, 0.286597997f, 0.054740455f, 0.387886435f, -0.178627521f, -0.0251746047f, -0.0101515818f, -0.263256043f, 0.00417011464f, -0.296711385f, -0.685390115f },
    { -0.0744355693f, 0.0706216171f, -0.104419991f, -0.0307310037f, -0.0111269783f, -0.0832326338f, -0.0944249481f, -0.0711527839f, -0.0589159019f, -9.65140789e-05f, 0.0374815576f, -0.00499832677f, -0.0795738772f, -0.0547278151f, 0.000543446979f, -0.0963909179f, -0.0496863797f, -0.0148700774f, -0.0573621541f, -0.0440182611f, -0.0462280437f, -0.0662700757f, -0.000495290093f, 0.0873927996f, -0.110168792f, -0.0140541559f, 0.00349905342f, -0.0903594196f, 0.0478766337f, 0.0127817523f, -0.0279058032f, 0.0299501047f, 0.0516037941f, -0.0787723511f, -0.00601174496f, -0.0675699636f, -0.0613371432f, 0.0171434265f, 0.0387019031f, 0.0916040912f, -0.0632877424f, -0.00874689501f, -0.144606352f, 0.0647410229f, 0.0641635433f, 0.00575831439f, -0.131665036f, 0.0254981071f, 0.0295725819f, -0.0524286889f, 0.00482536852f, 0.0505724326f, 0.0292394925f, 0.0586021021f, -0.00987407565f, -0.058995638f, -0.0593530089f, 0.0146666886f, 0.0501591936f, -0.100266121f, 0.0124623766f, 0.0351088606f, -0.075064145f, 0.0156861152f, 0.0217543542f, 0.0311054382f, -0.0544810407f, -0.0913976505f, 0.0733024105f, -0.0805189833f, 0.0145952906f, 0.0689793825f, -0.019792961f, 0.0309043843f, -0.0193133801f, -0.0671407059f, -0.0770227462f, 0.0745063722f, -0.0960032716f, 0.0226207245f, -0.057152804f, -0.00932258181f, -0.121381156f, -0.0482255816f, 0.0693475977f, 0.0471870713f, -0.126346514f, -0.00367751275f, -0.0416143499f, -0.128920272f, -0.096482344f, 0.0525039025f, -0.0117647843f, 0.0191773418f, 0.0419813134f, -0.0836976394f, -0.0561279245f, -0.0304510221f, -0.0405216068f, -0.0765403286f, -0.0295677427f, -0.00329785841f, -0.119337343f, -0.0795965046f, -0.0947187394f, -0.086138837f, -0.081158407f, -0.0852733031f, 0.055131916f, 0.0138457725f, 0.00348128146f, -0.0451669134f, 0.0299209189f, -0.0344871357f, -0.0448790938f, -0.0939056277f, -0.0441745184f, 2.97054648e-05f, -0.00211305101f, -0.0898395777f, -0.0292134695f, -0.0978147835f, -0.0992626175f, 0.0420123935f, 0.0444392972f, -0.0874473006f, 0.0379194207f, -0.0727108493f },
    { -0.56048739f, -0.144845769f, -0.0979793742f, 0.039133478f, 0.20033668f, 0.315884531f, -0.346253842f, -0.155230463f, 0.0279335175f, 0.0566049106f, 0.0965968892f, -0.0728084221f, -0.2181793f, -0.140567049f, -0.0511627048f, -0.00447832141f, 0.0764582008f, -0.0603658482f, -0.164965734f, -0.0593395345f, 0.0526983067f, -0.0129205836f, -0.0230027866f, 0.179857329f, 0.119803905f, -0.0243423097f, 0.237515092f, 0.0944409594f, -0.0647222921f, -0.0628833845f, -0.471111685f, 4.87741672e-05f, -0.183177829f, 0.147679895f, 0.215544999f, -0.163979977f, -0.150192827f, 0.479796261f, -0.0586354174f, 0.059725631f, -0.226732373f, 0.308314949f, -0.299815506f, -0.735515237f, -0.170694858f, -0.220899969f, -0.0881449804f, 0.0520224273f, -0.100884303f, -0.374640763f, -0.129871368f, -0.00444182986f, 0.0258526951f, 0.0661490187f, -0.0721850693f, -0.0546655655f, 0.119289227f, 0.0205849633f, -0.0966793671f, -0.113837168f, -0.0469088294f, -0.0402865708f, 0.00440830924f, 0.0398620032f, 0.0428839736f, -0.0039737639f, -0.109874465f, -0.582906306f, 0.0807607174f, -0.311544329f, 0.218936771f, -0.0294044204f, -0.128595665f, 0.0862803087f, -0.52005899f, -0.216064215f, -0.407999784f, 0.254564315f, 0.0809160024f, -0.00834351406f, -0.0712285191f, 0.0622214302f, -0.241233706f, -0.0772491693f, 0.137500167f, -0.071983017f, -0.102756105f, -0.04409777f, -0.0317465104f, -0.395623505f, -0.280136794f, 0.0640302002f, 0.0940096155f, -0.0551553816f, -0.11238531f, -0.065155603f, -0.00573388021f, -0.0855995193f, 0.0764499828f, 0.288533151f, -0.513283849f, -0.222658426f, 0.0276876446f, 0.075265564f, 0.0153003614f, 0.0335007347f, 0.0883952603f, 0.11991901f, 0.160351396f, -0.0538819954f, -0.113031268f, 0.150090888f, -0.506695807f, 0.252324998f, -0.119568452f, -0.307169706f, 0.0890979171f, 0.129983902f, -0.00840759464f, -0.227290034f, -0.15038611f, -0.0748330876f, 0.247350022f, -0.13647382f, 0.164589345f, -0.164467946f, 0.0163905416f, -0.213880673f },
    { 0.540878713f, -0.606080651f, -0.356458306f, -0.0650538951f, -0.142083362f, -0.330385417f, -0.127818629f, -0.539574623f, -0.230711475f, -0.048258815f, -0.315161526f, 0.464303195f, -0.27440545f, -0.29449147f, 0.193410993f, 0.270475805f, 0.0480155759f, 0.251529574f, -0.121514484f, -0.029074531f, -0.460729271f, -0.470756084f, -0.0564370826f, -0.0727723166f, -0.344553709f, -0.00214357348f, -0.015976917f, -0.134099633f, -0.902070284f, -0.124915622f, -0.0551887788f, 0.107900023f, -0.312627077f, 0.174470454f, -0.00537316082f, -0.156941727f, 0.0848136321f, -0.219586715f, 0.132667854f, 0.117665827f, 0.290403634f, -0.352096617f, 0.0172545947f, 0.326823562f, -0.0797739178f, -0.036358688f, -0.0154756615f, -0.536514938f, 0.292839259f, 0.363523364f, -0.0173095576f, -0.135245085f, -0.0914636627f, -0.222552076f, 0.691340566f, -0.291183472f, -0.251278162f, -0.200343326f, -0.212704882f, 0.148515493f, 0.38446489f, -0.222528696f, -0.371823877f, 0.0927736014f, -0.233460024f, 0.0467111506f, -0.0557307154f, 0.164399192f, 0.170888498f, 0.758943141f, -0.553894401f, -0.707118332f, -0.0751526952f, -0.128741428f, -0.325693995f, -0.477482855f, -0.113082036f, 0.424385905f, -0.0473451465f, 0.0745708942f, -0.352814615f, -0.417628109f, -0.184674665f, -0.0754753724f, 0.591310143f, -0.415214866f, -0.0815439075f, -0.0833246335f, -0.182860985f, -0.179382473f, -0.338804871f, 0.0564873554f, 0.0112489145f, -0.0646372437f, -0.0170284621f, 0.0393893197f, -0.232189924f, -0.175192371f, -0.0377758145f, -0.0238731131f, 0.312040418f, -0.0674993619f, -0.335280746f, 0.0598281808f, 0.224473521f, -0.0277757589f, -0.0842914656f, -0.350012422f, 0.0365734808f, 0.0425955467f, -0.0720421225f, 0.0688477159f, 0.403643399f, -0.196709782f, 0.233324885f, -0.0888006091f, -0.0677757487f, 0.381705046f, -0.229802579f, -0.949608326f, 0.134703383f, -0.332025051f, 0.0167607814f, -0.168287933f, -0.0865603387f, -0.0583497658f, -0.269416183f, -0.26774475f },
    { -0.419063121f, -0.569041729f, -0.0766665936f, -0.695993662f, 0.0956824347f, 0.0369954556f, 0.600735307f, 0.358596206f, 0.0438641682f, -0.00376792322f, 0.581240177f, -0.95908308f, -0.757710636f, -0.0573199503f, 0.0819189399f, 0.131350785f, -0.0490048118f, -0.352741867f, -0.512262464f, -0.0456643254f, 0.198866099f, -1.08168161f, -0.136344641f, -0.616490722f, -0.301730335f, -0.0857693031f, 0.162133783f, -0.197844192f, -0.0471909419f, -0.396062076f, -0.397177994f, -0.161931157f, 0.206696808f, 0.168810949f, -0.235245049f, 0.189761162f, -0.730787158f, 0.0643784553f, -0.277194142f, -1.12949383f, -0.609672129f, 0.0555024296f, -0.955528677f, -0.0819371268f, 0.359976828f, -0.245452955f, -0.290503919f, -0.0384446792f, -0.0538781583f, -0.0607304163f, -0.207522795f, 0.520824194f, 0.179742873f, 0.209616527f, 0.155771688f, -0.510376573f, -0.0688378289f, -0.550176322f, -0.403906167f, -0.254317701f, -0.301328838f, 0.0698999837f, -0.169679165f, -1.30149627f, 0.28416118f, -0.551021874f, -0.435719073f, 0.164498702f, -0.354078382f, -0.0808281004f, -0.324202806f, -0.536820114f, 0.335551709f, 0.127548173f, 0.23643367f, 0.130074188f, -0.0976365209f, -0.455282509f, 0.120669216f, -0.131550834f, -0.515677929f, -0.356536597f, -0.343859613f, 0.226468101f, 0.01419394f, -0.665120304f, -0.157546565f, -0.12853983f, -0.587035835f, -0.955404997f, -0.0237786304f, -0.276748717f, -0.189114004f, -0.759350896f, -0.210053086f, -0.079888083f, 0.0432933643f, 0.524425149f, 0.218208507f, -0.225780234f, -0.457031518f, -0.0486926697f, -0.135909617f, -0.404394865f, 0.0756035075f, -0.418736756f, 0.0554928631f, -0.224471986f, -0.949448943f, -0.021548586f, -0.0050774226f, -0.27178058f, -0.0603413805f, 0.070246622f, 0.124322116f, -0.179372773f, -0.118206643f, -0.440600544f, -0.430050433f, 0.327743292f, -0.376694322f, 0.00629400928f, 0.0172331054f, -0.274858475f, 0.430858999f, 0.118859351f, -0.268658131f, -0.0941667706f },
    { 0.405752033f, 0.0567926392f, -0.0417783298f, -0.188245118f, -0.239276379f, -0.317409635f, -0.206106544f, 0.0701677576f, -0.195612371f, -0.123641454f, -0.0287770666f, 0.0813434198f, -0.137387335f, -0.118062474f, -0.144467816f, 0.159709647f, -0.0127667943f, -0.0394546948f, -0.21281445f, -0.090767242f, -0.247195944f, -0.0745466277f, -0.246503726f, 0.0870070159f, 0.0205354001f, -0.0864465162f, -0.112221517f, -0.142004818f, -0.238403708f, -0.159391403f, -0.0517942682f, -0.193020254f, 0.0820940956f, 0.157820225f, -0.211358711f, -0.0841879994f, -0.114920616f, -0.145051509f, -0.0729446635f, 0.0398588516f, 0.0360015966f, -0.225041598f, -0.0966705605f, 0.494856894f, 0.0823434591f, -0.23510389f, -0.0141529674f, -0.0654050559f, 0.0389280319f, 0.401419014f, -0.0943118259f, 0.0744973794f, -0.171059951f, -0.228866294f, -0.0339100994f, -0.229837015f, -0.137102395f, -0.201718509f, -0.160075977f, -0.107440934f, 0.00983872078f, -0.0535588004f, -0.117230281f, 0.0751143396f, -0.216177598f, -0.115190133f, -0.0788440108f, -0.103463344f, -0.146166354f, 0.676089823f, -0.153209373f, -0.0411850028f, 0.350101233f, 0.0804569349f, 0.0894307792f, -0.120052539f, -0.037678767f, 0.0733572245f, -0.0515167378f, 0.00903549977f, -0.235446811f, -0.164326638f, -0.112936094f, 0.132107243f, 0.064830333f, 0.0047864425f, -0.201751068f, -0.160640404f, -0.135958031f, -0.161275283f, 0.168179393f, -0.0472545549f, -0.0423921905f, 0.0442079045f, -0.0211681742f, -0.105713002f, -0.121598154f, -0.0157732219f, -0.0635895878f, -0.149056315f, 0.0760172457f, -0.0791389346f, -0.0469415374f, -0.229240999f, -0.106836013f, -0.0996541604f, 0.0927405879f, -0.0571941584f, 2.34610479e-06f, 0.016101554f, -0.129593819f, -0.114530809f, 0.258639336f, -0.0818770677f, -0.0370621271f, -0.0701920167f, -0.0957408696f, -0.160954058f, -0.0201714914f, -0.0128325997f, -0.0967923775f, -0.138584629f, -0.162592188f, -0.219441369f, -0.188410699f, 0.0073214015f, -0.31110388f, -0.165330678f },
    { -0.0602885894f, -0.41044125f, 1.0828532f, 0.353470117f, 0.119098194f, -0.301385134f, 0.396261126f, 0.450745434f, -0.973163128f, -0.129906684f, -0.182722315f, -0.251087606f, 0.227415264f, -0.34259972f, 0.484572023f, 0.259535491f, 0.0394765213f, 0.520700634f, -0.885797679f, 1.10130823f, 1.1394099f, 0.261785686f, -1.86868513f, -0.227044567f, -0.523996651f, -0.193980157f, -0.0283454005f, 0.172006413f, -0.719140947f, -0.348866075f, 0.506510139f, -0.16742447f, -0.129211545f, 0.191059172f, 0.0104525303f, 0.283171833f, 0.341991961f, -0.353759348f, -0.308903068f, 0.189722225f, 0.252543241f, -1.04432952f, 0.0457264893f, 0.687817097f, 0.820326447f, 0.694471538f, 0.302080929f, -0.464666039f, -0.614959061f, 0.115588196f, 0.200370401f, 0.139421344f, 0.936685622f, 1.01940894f, 0.239976242f, 0.0976391658f, 0.248332068f, 0.757078171f, 0.295276731f, 0.220598876f, 0.219395012f, 0.144528106f, 0.349798888f, -0.0236379784f, 0.506079137f, 0.0223134868f, -0.388415396f, -0.197588131f, -0.497868836f, -0.378004551f, -1.32121444f, -0.197332561f, 0.476692468f, 0.479195982f, 0.274679571f, 0.755080223f, 0.677738488f, -0.00357435993f, -0.0149722015f, 0.111479335f, -0.790554583f, -0.214010119f, 0.518117666f, -0.305072159f, -0.664772034f, 0.60716337f, 1.2403208f, -0.0527905189f, -0.297906458f, 0.126640558f, 0.320398271f, -0.203003213f, -0.108441144f, 0.574343562f, 0.145431921f, 0.918839693f, -0.157309189f, 0.321789086f, 0.423023582f, -0.773201048f, 0.36480397f, 0.653025329f, 0.777947724f, -0.231137753f, 0.0350006968f, -0.633000553f, -0.0930021629f, -0.0654971823f, -0.131999239f, -1.02491403f, -1.17568219f, -0.0226169676f, -0.362953722f, -0.00458770478f, -0.495047152f, 0.0220304132f, -0.250769913f, -0.0791299939f, -0.00584421819f, 0.528492868f, -0.206534237f, -0.837407768f, -0.782355905f, 0.0449310392f, 0.156982318f, 0.588941455f, -1.01126468f, -1.20897841f },
    { 0.211686f, -0.265242696f, -0.0108680679f, -0.624057174f, -0.0444666669f, -0.0968775302f, 0.188858971f, 0.0188368428f, 0.0489817336f, -0.176571831f, 0.23046799f, -0.0553107075f, -0.0863132402f, -0.232192144f, -0.241994277f, -0.0661134869f, 0.190462798f, -0.170302704f, -0.0567223877f, -0.396661013f, -0.0688970461f, -0.570349276f, -0.102347717f, -0.482144833f, 0.0605360083f, -0.0112956092f, -0.193941757f, -0.0187331717f, -0.478075475f, -0.136691511f, -0.367290378f, 0.0124828499f, -0.029494606f, 0.575306833f, -0.0709454566f, -0.0513094552f, -0.214767471f, -0.0629559606f, 0.00786557049f, -0.0982696936f, 0.00588168437f, -0.00157322211f, 0.211370736f, 0.676264346f, -0.33599028f, -0.0731034428f, 0.161225975f, -0.437043011f, -0.0830698386f, -0.0832193121f, 0.294183135f, 0.0916371197f, -0.0520188063f, -0.094148621f, -0.253474712f, -0.152222514f, -0.179555163f, -0.0747379288f, 0.265517086f, 0.127151176f, -0.0736611784f, -0.619616389f, -0.0808526352f, 0.141154721f, 0.0757176504f, -0.180774987f, -0.238772094f, -0.0551412664f, 0.126212075f, 0.327643007f, -0.0132013513f, -0.168437064f, 0.467547834f, 0.00646819733f, 0.0395264998f, -0.0605028421f, 0.196960524f, 0.348793417f, 0.0936458558f, 0.00691653695f, -0.139720932f, -0.0342920758f, -0.0638697445f, 0.154346511f, 0.14866069f, -1.04087508f, -0.0218738541f, -0.179135248f, -0.0506577976f, -0.111371152f, 0.34132117f, 0.360028207f, 0.0230821948f, 0.14988853f, 0.207581237f, -0.417790949f, 0.0394699238f, 0.145108059f, -0.120022357f, -0.0923670828f, 0.194495752f, 0.0171630066f, -0.0118193105f, 0.147277772f, -0.170536205f, -0.161688849f, -0.146398798f, -0.348633587f, -0.211018726f, -0.433529973f, 0.101011112f, -0.0480813086f, 0.192339182f, 0.0353224613f, 0.231012091f, 0.20547621f, 0.216379195f, -0.237875208f, 0.226979986f, -0.122068778f, 0.117325187f, -0.00511205103f, -0.147508457f, -0.128474206f, -0.77169174f, 0.0347924493f, -0.141802996f, -0.0894896388f },
    { 0.604842007f, 0.315784037f, -0.365980119f, 0.240657732f, -0.0206873212f, -0.338588625f, -0.062890552f, -0.233911291f, -0.0183022246f, -0.380352497f, 0.0669573471f, -0.151222154f, -0.156144604f, -0.114111573f, -0.194437593f, -0.0134565122f, 0.246009722f, 0.0758424923f, -0.0158106685f, -0.273646921f, -0.2715092f, -0.845350146f, -0.160342872f, -0.490069747f, -0.119617648f, -0.208632261f, -0.0696520582f, -0.842450976f, -0.838442743f, -0.0429850668f, 0.049425777f, -0.000341383973f, -0.00400690408f, 0.333523721f, -0.181160599f, 0.00218503014f, 0.0433366671f, 0.0815987065f, -0.118699059f, 0.139284119f, 0.418421715f, -0.357616305f, -0.173649654f, 0.330067188f, -0.128533974f, -0.0925590917f, -0.297763109f, 0.263457417f, 0.253107458f, -0.181969032f, -0.0876900479f, -0.436066717f, 0.145825461f, 0.227073118f, -0.227991477f, -0.336018205f, -0.177189261f, -0.136627868f, 0.321406394f, -0.074352771f, 0.269724727f, -0.00547713181f, 0.038383875f, -0.372995406f, -0.396263719f, -0.248762786f, -0.176680923f, 0.11309576f, -0.12477538f, 0.611659288f, -0.0522157773f, -0.322305262f, 0.224446967f, 0.129405633f, 0.326989681f, -0.215978056f, 0.259182841f, 0.0262622572f, 0.0644037202f, -0.51345998f, -0.0865803137f, -0.101578794f, -0.160988912f, 0.281738639f, 0.0308283605f, -1.35385096f, -0.179864019f, -0.177111462f, -0.216429323f, -0.069147706f, -0.0394592993f, 0.179757714f, -0.17576766f, 0.136436731f, -0.15415214f, 0.104054697f, 0.00848404877f, 0.0394141376f, -0.0259531084f, 0.355639338f, -0.131294653f, -0.126480758f, -0.0275623389f, -0.101057529f, -0.175893173f, -0.449875236f, -0.490914613f, -0.464889079f, -0.0784759074f, -0.18912968f, -0.632281423f, 0.118904725f, 0.184892505f, -0.530426323f, 0.115660965f, -0.101414524f, -0.328999132f, -0.799353957f, 0.359499067f, -0.198210075f, 0.00238203397f, -0.319152683f, 0.0466236435f, -0.62794441f, 0.00377497426f, -0.18056488f, -0.506928027f, -0.310845077f },
    { 0.454383343f, -0.00174736383f, -0.0484603234f, -0.130518228f, -0.18775335f, -0.124733165f, -0.0488259979f, 0.0237032305f, -0.144943982f, -0.0970301405f, 0.00312053063f, -0.0124839069f, -0.133522019f, -0.11813195f, 0.010245407f, 0.157433912f, -0.013637973f, -0.0168630928f, -0.107606113f, -0.168942243f, -0.187985554f, -0.0235870965f, -0.107405409f, 0.0567935929f, -0.0438680239f, -0.0192479994f, -0.0341300741f, -0.0948077142f, -0.229250059f, -0.0383436866f, -0.0267580114f, -0.0307450667f, 0.0267574545f, 0.127710968f, -0.15425539f, -0.0654179528f, -0.0349345133f, -0.125921875f, -0.118496552f, -0.11220669f, 0.0368389897f, -0.0215872508f, -0.0369202122f, 0.340479225f, -0.00902877748f, -0.124731652f, -0.0886989683f, -0.0746476427f, -0.0100125587f, 0.405191123f, -0.0439841598f, 0.07946302f, -0.12166436f, -0.135027125f, 0.0920035392f, -0.261706591f, -0.0357513204f, -0.0981525928f, 0.0284964424f, 0.0907229856f, 0.0695549399f, -0.0895792171f, -0.213608116f, 0.047828082f, -0.0457524359f, -0.0195083171f, 0.0184324812f, 0.00517078256f, -0.0473203175f, 0.705366671f, -0.051749777f, -0.0668179989f, 0.399837673f, 0.0802671388f, 0.163878784f, 0.0234620981f, -0.0774052441f, -0.174029008f, -0.0681296438f, -0.0835436806f, -0.118120484f, -0.114236675f, 0.022668764f, 0.111598238f, -0.107180037f, 0.048566699f, -0.048848331f, 0.0897576883f, -0.106482506f, -0.110222399f, 0.114294738f, 0.00882504042f, -0.0212269444f, -0.015590759f, 0.0164013021f, -0.0247911755f, -0.170959368f, -0.0483151563f, 0.00132769754f, -0.183404103f, -0.0159315374f, 0.0425119847f, -0.0722762346f, -0.255583555f, -0.0324251875f, -0.0384109467f, 0.0507102683f, 0.2552104f, -0.0535903089f, -0.0347507969f, -0.135740578f, 0.00188664824f, 0.20978117f, -0.110857263f, -0.123151682f, -0.076645866f, -0.135443062f, -0.00941999815f, -0.084392786f, 0.00222509191f, -0.190109104f, -0.0992435217f, -0.0740248412f, -0.192580655f, -0.241745144f, -0.131670505f, -0.168812886f, -0.118750252f },
    { -0.0028508089f, -0.0572485588f, -0.0958898216f, -0.045319166f, 0.0727567822f, -0.00692940224f, 0.061584238f, -0.0968067423f, -0.0704040527f, 0.0243893415f, -0.00697141467f, 0.0213611461f, 0.0173017792f, -0.0117158461f, -0.0738934353f, -0.00938575901f, -0.0917385519f, -0.0334857851f, -0.00137492747f, -0.0619689301f, -0.021698527f, 0.0691608414f, 0.0423243791f, -0.068512626f, -0.0264487267f, 0.0545741655f, 0.000477584807f, -0.0329749547f, -0.0331632458f, -0.0644864216f, -0.0873296261f, -0.0214924943f, -0.0238135587f, -0.076552555f, -0.0719917119f, -0.0281024221f, 0.0104289083f, 0.0677249134f, 0.0222298428f, 0.0544878282f, -0.0934903547f, 0.00501233805f, -0.0466483161f, -0.0773753077f, -0.0396473184f, -0.0955986008f, 0.0268663298f, 0.0117973471f, 0.0301811341f, 0.0151178157f, -0.0486717783f, 0.0613632351f, -0.0613536648f, -0.090886943f, -0.0765261501f, -0.0264386423f, 0.0535854734f, -0.0362108909f, -0.0255506635f, -0.030945193f, 0.0801257566f, 0.0223983172f, 0.0505187176f, -0.00994232576f, 0.0498222113f, 0.0661418214f, -0.0951421559f, 0.00823176652f, 0.0523712933f, 0.0600945577f, 0.0647441223f, 0.0637189448f, -0.0386765525f, 0.0117880721f, -0.007694453f, 0.0142563321f, -0.102805153f, -0.0795665607f, 0.00266380701f, -0.0446483605f, -0.0978078544f, 0.00638499018f, -0.0990291983f, -0.0635248572f, 0.00774471415f, 0.0710659474f, -0.0916761532f, -0.0905721337f, 0.00228796341f, 0.0593163185f, 0.0112843765f, -0.0344853699f, 0.0557113923f, -0.00112367491f, -0.076206252f, -0.0864011347f, -0.0625870153f, 0.0561254695f, -0.0106957741f, -0.0205316935f, -0.0788863897f, -0.102273881f, 0.0674665272f, 0.0280411802f, -0.0798128322f, -0.0221124906f, 0.0135258324f, 0.0114354491f, -0.0761748478f, 0.00216684514f, 0.00520880288f, -0.0529564247f, -0.0530469269f, 0.0474799275f, 0.0600341894f, 0.0310547072f, 0.0364373364f, -0.0983425006f, 0.013409012f, 0.0628645122f, 0.0391215794f, -0.0268112328f, -0.0296846218f, -0.0719025955f, -0.0864194036f, -0.0832251385f, -0.0460511595f, 0.00444747694f },
    { -0.319188237f, -0.0682962015f, -0.106853984f, -0.33509776f, -0.176048666f, -0.33830595f, 0.183541387f, -0.0487216115f, 0.0919527337f, -0.121095754f, 0.0826372877f, -0.23618266f, -0.0984019041f, -0.00275887805f, 0.192926779f, -0.0957437009f, 0.0921383351f, -0.188411623f, 0.087939173f, 0.00710614864f, -0.146624714f, -0.0571181849f, 0.0218167286f, -0.17221269f, 0.354324549f, -0.0206515044f, -0.269032955f, -0.221434698f, -0.161639556f, -0.0343515985f, -0.0897500888f, -0.183936149f, -0.273058057f, -0.345104724f, 0.0928159654f, 0.108753629f, 0.020540446f, 0.165131688f, -0.289697886f, 0.00295180292f, -0.144479334f, 0.0907047391f, 0.187420532f, 0.498279274f, -0.303784072f, -0.0342701413f, 0.0201821513f, -0.0320836715f, -0.0484728552f, -0.274539113f, 0.0119367363f, -0.285186291f, 0.00763694523f, 0.00225263019f, -0.161994576f, 0.0639038011f, -0.149050817f, -0.100011148f, -0.050234478f, -0.683848798f, -0.2396065f, -0.118748911f, 0.124912672f, 0.157247186f, -0.106415905f, -0.0295973625f, 0.0713292807f, -0.114918195f, 0.160154879f, 0.482818276f, -0.00745940628f, -0.158399329f, 0.0400830694f, 0.033999268f, -0.118891753f, 0.00612865388f, 0.0944022387f, 0.00626741396f, -0.0744237676f, -0.0361060835f, 0.00658803107f, 0.12869072f, -0.08423426f, -0.127221748f, 0.0473944768f, -0.28041482f, -0.046753142f, -0.0995214656f, 0.0593008772f, -0.0633412004f, 0.232327566f, 0.112095408f, -0.0386012718f, -0.422734886f, 0.0746594742f, -0.103145294f, -0.0252043121f, -0.180004686f, -0.311190456f, 0.170030817f, 0.0218172707f, -0.0116608199f, -0.00243510609f, 0.268239141f, -0.0948851332f, -0.168626726f, -0.0517418198f, 0.206064984f, -0.0860376358f, -0.103373297f, 0.00733324979f, 0.133200943f, -0.0732209831f, -0.054847382f, -0.00170679553f, 0.0640982687f, -0.0946638882f, -0.194865957f, 0.240124524f, -0.0441477969f, 0.187707871f, 0.0269713644f, -0.0505412892f, -0.168269247f, -0.710822165f, 0.0365145728f, 0.0774325356f, 0.0816895068f },
    { -0.437297553f, -0.188883826f, -0.247629628f, -0.1717363f, 0.0364458896f, -0.00810967386f, -0.367107302f, -0.122407965f, -0.0261758864f, -0.00514843455f, 0.180727586f, -0.0585782863f, -0.166162565f, -0.0994180217f, 0.0855347291f, -0.064698942f, -0.0174327586f, -0.138564467f, -0.223968759f, -0.160665959f, -0.0727965981f, -0.0301143546f, -0.112056322f, 0.0225912407f, -0.10419973f, -0.0435741134f, -0.136550784f, -0.210685164f, -0.237667233f, -0.149209678f, -0.108905151f, -0.0703680664f, -0.298117757f, -0.0684610233f, -0.0119302236f, -0.00977869797f, -0.0147299431f, -0.117692098f, -0.0198560506f, -0.324449182f, -0.0668889284f, 0.0788501129f, 0.299375683f, -0.0646750182f, 0.105515659f, -0.261765897f, -0.122930236f, 0.0765855685f, -0.131993726f, -0.307113349f, -0.0443812609f, -0.390212953f, -0.0031702884f, -0.0324700177f, -0.141140386f, -0.07604184f, 0.0862869397f, -0.0106418375f, -0.0415283851f, -0.0340362154f, -0.526470244f, 0.122814618f, -0.182376698f, -0.319648683f, -0.0619484894f, 0.0102166319f, -0.227719367f, -0.247317553f, -0.177844584f, 0.358764112f, -0.0625029132f, 0.268141299f, -0.13207534f, -0.359931976f, -0.265653968f, 0.0110223405f, -0.191965848f, -0.00891373493f, -0.10687387f, -0.203444913f, -0.277855277f, -0.215203121f, -0.0553303584f, -0.29163897f, -0.277281672f, -0.0583742782f, -0.158430293f, 0.0255382359f, -0.18482025f, -0.105695777f, 0.114612222f, -0.114062876f, -0.176017836f, -0.276036114f, -0.0648578033f, -0.0497785211f, -0.077003859f, -0.107856438f, 0.0938814357f, 0.195832342f, -0.150699764f, 0.352080524f, -0.0836800039f, 0.0780290812f, 0.0224026665f, -0.0575545393f, -0.0942831114f, 0.0734671354f, -0.0136449113f, -0.279017329f, -0.0844600946f, -0.16176708f, -0.288381219f, -0.142309874f, -0.00249830168f, 0.319807827f, 0.0259668734f, -0.0770028308f, -0.0694461837f, -0.00952479616f, 0.0450168252f, -0.216923028f, -0.386811644f, -0.0222033132f, -0.14022091f, -0.0381341428f, -0.0627280623f, -0.247210905f },
    { 0.44672358f, 0.00414990401f, -0.017443398f, -0.211433724f, -0.00356642087f, -0.157323956f, -0.0862708166f, 0.0896877348f, -0.172659412f, -0.066170305f, 0.0251615513f, 0.0160141569f, -0.0167811401f, -0.0568179078f, 0.0428307354f, -0.0180014223f, -0.0784616172f, -0.0216459166f, -0.153160483f, -0.19099912f, -0.219880477f, -0.129756421f, -0.0907635093f, 0.166645363f, -0.0677086487f, 0.018485507f, -0.324205786f, -0.0725975409f, -0.263837308f, -0.198191673f, 0.0998641253f, -0.151341036f, -0.119051196f, -0.140414134f, 0.000856450235f, -0.163257048f, -0.131539077f, -0.136701256f, 0.0238392968f, -0.19155924f, -0.0207327344f, -0.224991202f, 0.0358298011f, 0.297216415f, -0.0780835003f, -0.204669476f, 0.00498124957f, -0.0223911088f, -0.0880576819f, 0.378556669f, -0.0821298882f, -0.0460240915f, -0.0826999769f, 0.00657890644f, -0.244476736f, 0.00400959235f, -0.19434087f, -0.18305327f, -0.0426781401f, -0.131548375f, 0.125683829f, 0.154351294f, -0.0564244129f, -0.149530157f, 0.0205992442f, -0.0394078977f, -0.123696111f, -0.0803191736f, -0.288675964f, 0.705129564f, -0.196360484f, -0.147757247f, 0.313329339f, 0.251818955f, 0.234910935f, -0.178229213f, 0.036096964f, -0.0339130722f, -0.0943522155f, -0.138488218f, -0.0820890963f, -0.13356705f, -0.0626977682f, 0.05726403f, 0.154618472f, 0.179210827f, -0.122313559f, -0.14726007f, -0.0223330371f, -0.112591557f, 0.134739488f, -0.0272259023f, -0.183941022f, -0.167279854f, 0.0161713585f, -0.304708213f, -0.0178485438f, -0.0852071568f, 0.0199552327f, 0.0108652273f, 0.00961424503f, -0.0836757943f, -0.172771171f, -0.0918807238f, -0.182084486f, -0.153573349f, -0.111059651f, 0.0260610972f, -0.0915936679f, -0.12096227f, -0.0685579479f, -0.0307971407f, -0.025125619f, -0.131627426f, -0.161430374f, -0.113312565f, -0.0860339478f, -0.183490485f, -0.0157900508f, -0.0775422752f, -0.0203476995f, -0.0502274372f, 0.0389256626f, -0.3190853f, -0.224054143f, -0.0737117901f, -0.0499215983f, -0.027999904f },
    { -0.306776643f, 0.0038583586f, 0.122752823f, 0.327521652f, 0.248652518f, 0.170183957f, -0.108905643f, -0.134726241f, -0.0279132873f, 0.163687721f, -0.026109919f, 0.00493741687f, -0.229108855f, -0.224169344f, 0.0186060481f, -0.184229016f, -0.234636813f, 0.0070633078f, -0.00169990398f, 0.343243897f, 0.129678458f, 0.0431610793f, -0.0117275091f, 0.152041674f, -0.00242223474f, -0.0635324568f, 0.293324679f, -0.106080294f, 0.34496364f, -0.125215575f, 0.484945357f, 0.323210806f, 0.0723800734f, -0.0906990618f, 0.0723306164f, -0.26471886f, 0.0666390285f, -0.0703119487f, -0.208722875f, 0.0694243759f, 0.307449698f, -0.527316868f, 0.00187682337f, -1.25830126f, -0.0945454538f, 0.0778649971f, -0.207143083f, -0.112072647f, 0.159072846f, -0.209302142f, 0.128485754f, 0.0803868175f, 0.19389309f, 0.395150632f, 0.170525402f, 0.285979986f, -0.853032112f, 0.421594203f, 0.241236135f, -0.0196203478f, -0.465255111f, -0.0426746048f, 0.230694816f, 0.161540538f, 0.049990654f, -0.0131117729f, -0.132867321f, -0.357524484f, 0.37189123f, -0.786140442f, -0.19987604f, 0.21689263f, -0.611606896f, -0.250648141f, -0.248612165f, 0.0344293006f, -0.223858327f, 0.698490441f, -0.192527443f, -0.292133063f, -0.0864153355f, 0.286060154f, -0.187202796f, -0.289386332f, 0.550631702f, -0.15848124f, 0.0448978059f, -0.281423599f, -0.127713099f, 0.16782178f, -0.225169614f, 0.128175661f, -0.231511593f, -0.244340345f, -0.237696141f, 0.233995304f, 0.347790688f, -0.0865697935f, 0.171718627f, 0.0436067097f, -0.452608943f, -0.107952058f, 0.208433062f, 0.228772134f, -0.0590118542f, -0.109264039f, -0.039555978f, 0.162321523f, -0.0364644416f, -0.0555759966f, -0.178154022f, 0.192246661f, -0.294234723f, -0.628859282f, -1.55183387f, -0.321990371f, -0.11295034f, -0.144368395f, 0.129726872f, -0.0227418859f, -0.367724359f, 0.157845289f, 0.124160059f, 0.0830846727f, 0.0205440167f, -0.117982328f, 0.162714452f, -0.268650442f },
    { -0.342411101f, 0.886987388f, -0.222956523f, -0.103018142f, 0.0147631085f, 0.129764169f, -0.308451146f, -0.205275431f, 0.19054994f, -0.157197341f, 0.0318462439f, 0.00468745921f, -0.731727302f, -0.0422719717f, -0.0726078227f, -0.0329463258f, -0.0892665237f, -0.286578476f, -0.0434502363f, -0.0173128713f, 0.0667245314f, -0.891377151f, -0.0131909354f, -0.712682426f, -0.0107775899f, -0.0419703946f, 0.179136649f, -0.108156532f, 0.595509708f, -0.267454177f, -0.198528901f, -0.0904544219f, -0.128187343f, -0.00300809601f, -0.358577102f, -0.069061622f, -0.21223022f, -0.168031693f, -0.342616379f, -0.134762377f, 0.0295757223f, -0.254750013f, -0.0626322329f, -0.483787805f, -0.0314673893f, 0.0171566177f, -0.11056269f, 0.370870888f, 0.026030641f, -0.0797167867f, 0.0335864536f, -0.056741666f, -0.085097529f, -0.05841754f, 0.131149754f, -0.162139207f, -0.138171867f, -0.703146696f, -0.00103055965f, 0.133440658f, -0.211470693f, -0.1849709f, -0.330759674f, 0.115090512f, -0.379278541f, -0.195404515f, -0.0356997102f, -0.376989096f, -0.0936462656f, -0.450361758f, -0.227981821f, -0.292144865f, -0.302657217f, 0.312939048f, -0.0959422514f, -0.350538343f, -0.103840865f, -0.295327336f, -0.0667401627f, -0.0880774185f, -0.0603798963f, -0.443010986f, -0.251135796f, -0.0122004105f, -0.223928094f, -0.284155875f, 0.0299140736f, -0.221614599f, 0.0262063853f, -1.15198505f, -0.293028057f, -0.118187122f, -0.18643561f, 0.203239352f, -0.237740219f, 0.162302986f, -0.0299360789f, -0.263026178f, 0.0361955911f, 0.34682253f, -0.0337912366f, 0.153391644f, -0.170451775f, -0.0498732813f, 0.0141770886f, 0.295071065f, -0.179775178f, -0.316222966f, -0.177506283f, -0.106552012f, 0.0537630655f, 0.238397092f, 0.0284875184f, -0.212833062f, 0.084931232f, -0.0255175047f, -0.355880886f, -0.303522885f, 0.01734473f, 0.0184472054f, -0.143162251f, -0.235719666f, 0.158450574f, -0.976618588f, 0.156840116f, -0.00769212004f, -0.380979449f, -0.0689750463f },
    { -0.101821914f, -0.26087901f, -0.0758293867f, -0.0800484791f, -0.0733586103f, -0.0866100639f, -0.0100560486f, -0.285770893f, -0.0797170922f, 0.0879682302f, -0.000606201356f, 0.0887741894f, -0.178357258f, -0.0708580017f, -0.12286704f, 0.084889397f, 0.048623126f, -0.0203704312f, -0.0942707285f, -0.0871869549f, 0.143123165f, -0.25295186f, -0.0783117414f, 0.0826261342f, -0.0816412345f, -0.0325081423f, -0.192430809f, -0.193585321f, -0.0834135264f, -0.285291612f, -0.102021925f, -0.122630998f, -0.0377480499f, -0.123119332f, -0.0204902999f, 0.00926898234f, -0.0944945589f, 0.0219818335f, -0.00854369812f, -0.118134029f, -0.454686105f, -0.0460373051f, 0.0158860199f, -0.655394197f, -0.0695512071f, -0.110134773f, 0.00884277467f, -0.041590821f, 0.0838357955f, -0.0185012054f, -0.0649408028f, 0.0761752874f, 0.0837391466f, -0.0754628107f, -0.0327127837f, -0.17077601f, 0.0658448189f, -0.068784751f, -0.0701314881f, -0.134339184f, -0.0210440774f, -0.250312924f, -0.255263925f, 0.0270189755f, 0.0417076014f, -0.0282733869f, -0.105985895f, -0.0504604429f, -0.154695779f, -0.3020235f, -0.00428152131f, 0.0262115691f, -0.240356684f, -0.126091197f, 0.0737861246f, -0.0896629617f, -0.0598975942f, 0.0331644341f, -0.0450681709f, 0.139214247f, -0.106452182f, -0.0370230377f, -0.000980869168f, -0.0928819403f, -0.0341792181f, -0.10778901f, -0.0666177571f, -0.0296497401f, -0.00233638776f, -0.102172494f, -0.215196386f, -0.145788297f, -0.165255681f, -0.00312444777f, -0.0399001315f, 0.0751759633f, -0.0912123397f, -0.0437028855f, 0.0331665799f, -0.0932339355f, -0.0838892907f, 0.0880158916f, 0.071791403f, -0.0113128591f, -0.0237872172f, -0.00346967299f, 0.104677379f, -0.462855786f, -0.0143291047f, -0.114877887f, -0.0470882691f, -0.106659651f, 0.0940397009f, 0.0917913914f, 0.0078277206f, -0.0540471748f, 0.0403783806f, 0.0226717666f, -0.1021116f, -0.133472994f, -0.00191413856f, -0.0568943843f, 0.0868904293f, -0.00568300253f, 0.00117128342f, -0.169330448f, -0.0640445128f, 0.00890808646f },
